<?xml version="1.0"?>
<opencv_storage>
<opencv_ml_svm>
  <format>3</format>
  <svmType>C_SVC</svmType>
  <kernel>
    <type>LINEAR</type></kernel>
  <C>1.</C>
  <term_criteria><iterations>100</iterations></term_criteria>
  <var_count>784</var_count>
  <class_count>7</class_count>
  <class_labels type_id="opencv-matrix">
    <rows>7</rows>
    <cols>1</cols>
    <dt>i</dt>
    <data>
      1 2 3 4 5 6 7</data></class_labels>
  <sv_total>21</sv_total>
  <support_vectors>
    <_>
      -4.40940039e-06 -7.04074182e-06 -1.11478412e-05 -9.64390347e-06
      -3.02983949e-06 -8.91721629e-06 -9.88823194e-06 -3.65874075e-06
      -1.3480595e-05 -1.34750171e-05 -1.3257375e-05 -2.76157116e-05
      -3.96889154e-05 -3.0050589e-05 -2.62878984e-05 -7.21821789e-06
      1.61740099e-05 2.22470953e-05 -2.36201286e-05 -6.09883282e-05
      -0.00010556139 -1.26824316e-05 -1.91865238e-05 -2.9219771e-05
      -2.73888545e-05 -1.8498471e-05 6.9950479e-06 -3.26212125e-06
      6.91375135e-07 5.24565121e-06 -5.28293685e-06 -1.50424039e-05
      -1.70373169e-05 -2.6385751e-05 -3.64860389e-05 -3.82222279e-05
      -6.97492796e-05 -0.000100005724 -9.99222466e-05 -6.32844385e-05
      -4.51681517e-05 -4.37379567e-05 -4.1163803e-05 -4.3704822e-05
      3.61143357e-05 9.66991065e-05 0.000117135081 7.82068892e-05
      7.60185285e-05 8.7321052e-05 3.47673158e-05 6.38605434e-06
      6.36160667e-06 -1.04065884e-06 -4.43055478e-06 1.94584263e-05
      2.6967331e-05 5.70196835e-06 -2.40292702e-05 -3.71793139e-05
      -1.80389743e-05 -1.52115572e-05 -2.93103203e-05 -6.27535628e-05
      -6.41994484e-05 -9.47612498e-05 -6.79583318e-05 -6.55886615e-05
      -1.63819259e-05 6.09672607e-05 0.000108007305 5.164303e-05
      6.93015754e-05 7.55562141e-05 8.06740718e-05 0.000114178772
      0.000105006402 0.00014453278 0.000155834423 0.000163738761
      0.000146526043 0.000132807007 8.66051414e-06 -1.79631115e-05
      -9.89304226e-06 -2.8513643e-05 -5.12364095e-05 -3.1102958e-05
      -3.67351413e-06 -4.34070498e-05 -6.61089871e-05 -1.22653664e-05
      -4.08600226e-06 -5.97128455e-05 -6.28554262e-05 -3.54694748e-05
      -4.31263879e-06 -1.07416199e-05 1.35989631e-05 -2.87798753e-06
      3.60003178e-05 5.3636777e-05 6.94828632e-05 0.000134122427
      0.000112056208 0.000134173606 0.00012472368 9.90171538e-05
      0.00013990709 0.000130377623 1.02019158e-05 -1.86814896e-06
      -3.70144407e-05 -4.78033289e-05 -6.33531599e-05 -3.00220709e-05
      -1.42337585e-05 -8.51837012e-06 3.84113373e-05 4.2084077e-05
      -3.35194272e-05 -7.62207201e-05 -5.28911187e-05 -2.18348305e-05
      4.61644549e-06 -2.4339226e-05 -2.01752882e-05 -1.76296533e-06
      2.69218253e-05 6.6290937e-05 0.000124146391 0.000184887962
      0.000166733196 0.00014392953 0.000110401284 9.56244403e-05
      5.84118607e-05 7.85048323e-05 -1.42846438e-05 -3.50287992e-05
      -7.25652208e-05 -4.44804718e-05 -4.45068645e-06 2.27972159e-05
      3.21191942e-06 3.01070359e-05 6.25050016e-05 6.27307463e-06
      -3.37370766e-05 -2.02696392e-05 -1.23465843e-05 -2.4420001e-06
      2.67185715e-05 6.0696937e-05 7.35947397e-05 3.728617e-06
      7.09437227e-05 7.20006792e-05 8.49631469e-05 0.000127118474
      0.000125225008 0.000124741651 0.000130266315 6.81917663e-05
      2.04486314e-05 -3.73552757e-05 -3.57976205e-05 -7.7378063e-05
      -6.62994134e-05 -3.00793017e-05 8.33673585e-06 -1.41820328e-05
      1.58028106e-05 5.06175311e-05 1.89866623e-05 -5.57636611e-07
      2.61087516e-05 9.715755e-05 6.93234397e-05 9.61283877e-05
      0.000180426447 0.000204190044 0.000181149269 4.1360152e-05
      6.82887985e-05 7.10346212e-05 3.52212919e-05 5.15040338e-05
      8.42445879e-05 7.56087393e-05 0.000124210681 1.75809055e-05
      -1.89818984e-05 -8.70671211e-05 -8.40907887e-05 -8.37532498e-05
      -6.74266994e-05 -1.83095744e-05 6.42606174e-05 1.82827789e-05
      1.90191113e-05 -2.78042262e-06 -3.81802893e-05 2.81012526e-05
      4.41612137e-05 9.82862402e-05 9.04010521e-05 0.000147932224
      0.000165792866 0.000200702765 0.000209857957 0.000100714395
      4.92635554e-05 5.3496402e-05 2.50446137e-05 3.33509488e-05
      4.32992383e-05 4.23099664e-05 4.62397693e-05 1.23554964e-05
      3.40684819e-05 -7.39747265e-05 -0.000124063547 -0.000144496487
      -6.43762905e-05 -1.96644651e-05 8.22946822e-05 1.51625491e-05
      -4.63384677e-05 1.07405576e-05 8.44071201e-06 -7.72273052e-06
      -1.78520495e-05 7.98999463e-05 8.70715739e-05 0.000122017358
      0.000159704228 0.000221025024 0.000203289645 8.13774604e-05
      8.17745895e-05 6.33442032e-05 4.24912068e-05 5.37076958e-05
      2.04058815e-05 -5.89512774e-06 -8.12071994e-06 5.09630763e-06
      -2.256876e-05 -5.61690867e-05 -0.000153225905 -0.000153904461
      -5.91368043e-05 -3.85113235e-05 2.93761914e-05 1.89653274e-05
      -6.51440423e-05 -1.36003264e-05 -9.14940174e-05 -9.25437998e-05
      -2.32334114e-05 5.88386683e-05 6.43363019e-05 0.00011617758
      0.000145881248 0.000186986508 0.00014341333 3.56697092e-05
      8.99631123e-05 7.23470657e-05 2.04299322e-05 5.04594173e-05
      -3.18629986e-06 -1.92537264e-05 -4.99845264e-05 -3.04170158e-06
      -1.20746099e-05 -3.0070938e-05 -0.000125233943 -0.000112790323
      -5.4704542e-05 -2.92504701e-05 -2.88418487e-05 -4.48918618e-05
      -6.7795103e-05 -2.26392131e-05 -0.000101829937 -9.98538599e-06
      2.72712805e-05 9.2906128e-05 0.000142601217 0.000170163315
      0.00021788216 0.000225832075 0.000176023474 0.000107070417
      9.04647604e-05 3.95268689e-05 9.04167882e-06 2.5550291e-05
      -0.000103143393 -6.04864181e-05 -6.93075272e-05 -3.01334421e-05
      -3.66450076e-05 -1.8407467e-05 -0.000111816436 -0.000110094654
      -5.4704542e-05 -2.73944715e-05 -2.34013733e-05 -4.03243248e-05
      -5.0944851e-05 -3.66796012e-05 -3.40226507e-05 1.26026532e-06
      1.12428943e-05 9.07338908e-05 0.000142546385 0.000175509122
      0.000233561004 0.000217265988 0.000162480064 0.000119501557
      4.70615778e-05 3.69140289e-05 5.62568639e-05 6.15643648e-06
      -0.000116594034 -0.000103713195 -7.25314094e-05 -2.21414684e-05
      -3.02251283e-05 8.61626359e-06 -6.97559444e-05 -0.000104878651
      -5.14655803e-05 -2.73944715e-05 -2.73944715e-05 -5.33398052e-05
      -6.19496859e-05 -7.37553419e-05 -4.65990233e-05 0. 1.09904904e-05
      9.13381591e-05 0.000145422571 0.000178626797 0.000220355098
      0.000174515124 0.000135298716 9.2493734e-05 4.03791528e-05
      9.67863434e-06 8.17386099e-05 -5.96033942e-06 -0.000100733952
      -9.8682438e-05 -4.68394028e-05 -3.37739475e-05 -1.84120527e-05
      9.27550354e-06 -4.28639505e-05 -7.49156534e-05 -3.64640728e-05
      -2.73944715e-05 -2.73944715e-05 -6.15925601e-05 -7.56960435e-05
      -5.44250433e-05 -4.87129037e-05 -4.06820945e-05 -2.24315522e-06
      7.4092437e-05 0.000115161376 0.000140579956 0.000152019173
      0.000102146587 0.000154526861 5.19615496e-05 2.89415257e-05
      -5.73226635e-06 2.73039368e-05 -4.04141429e-05 -7.12883921e-05
      -4.36372247e-05 -4.45520782e-05 -4.9546321e-05 -3.45264489e-05
      9.27550354e-06 -1.85173576e-05 -5.55175102e-05 -3.64640728e-05
      -2.73944715e-05 -2.73944715e-05 -6.15925601e-05 -7.54811845e-05
      -5.21912261e-05 -6.25069588e-05 -7.11893663e-05 -1.34157372e-05
      4.46783342e-05 5.93005097e-05 0.000111213652 8.01612914e-05
      6.85796476e-05 9.29510861e-05 2.95800037e-05 1.54299414e-05
      3.08835552e-05 -2.23473089e-05 -8.21905815e-06 -3.25036126e-05
      -1.08933573e-05 -4.35706643e-05 -4.51810338e-05 -3.77501128e-05
      1.09910006e-05 1.41764085e-05 -3.53729265e-05 -3.64640728e-05
      -2.73944715e-05 -2.73944715e-05 -6.33978125e-05 -8.80319931e-05
      -7.06735809e-05 -7.11893663e-05 -6.94530972e-05 -4.87019388e-05
      -3.8441425e-07 1.39882841e-05 6.58433273e-05 1.37843908e-05
      1.56172118e-05 3.99899218e-05 2.94051351e-05 4.1610685e-05
      8.14979212e-05 -3.62659307e-08 -4.83969279e-06 2.55824452e-05
      2.54418028e-05 -3.54992444e-05 -3.93857954e-05 -2.31173635e-05
      4.24916398e-05 2.32322363e-05 0. -3.64640728e-05 -2.73944715e-05
      -3.10049763e-05 -7.03203114e-05 -8.40808789e-05 -7.11893663e-05
      -7.54511566e-05 -8.96148267e-05 -7.29614403e-05 -2.03949403e-05
      -1.39848526e-05 3.39680701e-05 -1.05691806e-05 3.81284849e-06
      9.72712442e-05 6.23797896e-05 8.53677484e-05 8.31445504e-05
      3.40808219e-05 3.251417e-05 5.6478515e-05 9.77483705e-06
      -3.84262239e-05 -7.65643417e-05 1.32343857e-05 5.12336046e-05
      1.77009188e-05 -1.1970784e-06 -4.49983418e-05 -3.5218829e-05
      -4.89574813e-05 -6.44985048e-05 -7.13081099e-05 -7.24616548e-05
      -9.32323819e-05 -0.000107835629 -9.91638881e-05 -4.58032227e-05
      -3.43472311e-05 -2.40799473e-05 2.18165496e-05 3.18826933e-05
      0.000111867557 6.29718706e-05 6.03164153e-05 6.79396835e-05
      7.28899759e-05 6.76544369e-05 3.59963742e-05 -6.07263937e-05
      -0.000106858293 -8.4967025e-05 -1.39426511e-05 4.24860737e-05
      4.01234229e-06 -1.38752266e-05 -0.000105368767 -6.41929e-05
      -2.74433169e-05 -2.95849914e-05 -3.46593624e-05 -8.16159591e-05
      -0.000120237943 -0.000132269037 -0.000105000909 -6.7560286e-05
      -0.00010359734 -0.00010772478 -2.61422465e-05 -1.73070821e-05
      9.11083116e-05 8.2596358e-05 0.000127398293 0.000107593165
      6.5919121e-05 -4.212568e-06 -4.28895946e-05 -5.79673651e-05
      -3.41151317e-05 -3.96878277e-05 -4.23105193e-05 2.58665623e-05
      3.01594696e-06 -1.48286608e-05 -0.000151240267 -7.33026027e-05
      -2.94784004e-05 -2.65847593e-05 -2.8694305e-05 -0.000100609504
      -0.000128820291 -0.000137606825 -0.000121403049 -0.000121042336
      -0.00012390349 -9.34086347e-05 -9.4250805e-05 -0.000107962143
      7.73267675e-05 7.20384269e-05 0.000104250365 -1.53539186e-05
      -6.17551632e-05 -3.16305486e-05 -2.62971917e-05 -4.85021046e-05
      -6.37570993e-05 -6.87381544e-05 -4.13383823e-05 -1.14788463e-05
      -1.36085819e-05 -1.56354126e-05 -0.000169336228 -0.000118756929
      -8.46625771e-05 -2.85806527e-05 -2.95537393e-05 -0.000113277587
      -0.000145564787 -0.000192019026 -0.000188108228 -0.000166080223
      -0.000129920736 -0.000122081576 -0.000128726751 -0.000108157197
      6.6435503e-05 -2.27792248e-06 -4.48430967e-07 -7.80977498e-05
      -0.000117075353 -0.000115098737 -8.6786793e-05 -0.000111726389
      -0.000120308898 -4.92982508e-05 5.27854718e-06 1.10284282e-05
      -2.14923912e-05 -2.62188641e-05 -0.000158674084 -0.000141257042
      -9.69594475e-05 -6.07591028e-05 -3.14287936e-05 -7.72810236e-05
      -0.000153123226 -0.000168332102 -0.000176668997 -0.00022281312
      -0.000191353349 -0.000144602207 -0.000166270635 -0.000138208663
      3.62602404e-05 -5.45048897e-05 -8.37567495e-05 -0.000155014714
      -0.000164697849 -0.000149776271 -0.000177279828 -0.000120966797
      -5.20068206e-05 2.00707731e-07 1.4093315e-06 -6.61007061e-06
      -4.36828523e-05 -5.35038744e-05 -0.000157909308 -0.000147268322
      -0.0001115216 -9.84127182e-05 -4.95309469e-05 -5.39421562e-05
      -9.23007683e-05 -0.00010344007 -0.00010781693 -0.000167089427
      -0.000160645359 -0.000123842721 -0.000177552909 -0.000125244071
      -1.65870961e-06 -0.000147378814 -0.000209887454 -0.00018593439
      -0.000176727015 -0.000155446396 -0.000146613631 -7.39550378e-05
      -3.30497824e-05 -3.74852461e-05 -2.54873012e-05 -1.58824223e-05
      -4.62985081e-05 -5.53343489e-05 -0.000138161311 -0.00013016192
      -8.35561223e-05 -7.64490906e-05 -7.69680846e-05 -6.32668234e-05
      -6.72139795e-05 -0.000110371744 -0.000121887882 -0.000136289076
      -0.00011930499 -0.000106542735 -0.000168102706 -0.000135904047
      -5.80844935e-05 -0.000135177368 -0.000189157625 -0.000159840667
      -7.37731461e-05 -0.000102695878 -0.000108145192 -7.42858101e-05
      -1.73490189e-05 9.37742061e-06 -5.5470382e-06 -3.96487885e-05
      -5.1332474e-05 -6.2284882e-05 -0.000140652177 -0.000105550476
      -7.62236887e-05 -6.35946417e-05 -8.34630846e-05 -6.01440734e-05
      -5.38193053e-05 -0.000106079176 -6.24497188e-05 -6.91764508e-05
      -7.75402659e-05 -0.000101229663 -0.000165103804 -0.000138452931
      -3.67379143e-05 -8.99279476e-05 -0.000116338473 -6.61147496e-05
      -4.50309344e-05 -5.1881434e-05 -3.41186787e-05 4.11764813e-06
      6.55066742e-06 8.88007435e-06 -1.22123015e-06 -1.7604174e-05
      -1.43989346e-05 -4.09139502e-05 -0.000142227742 -9.52086193e-05
      -7.81902709e-05 -6.74352486e-05 -6.99602824e-05 -5.64231923e-05
      -0.000111966321 -5.80042688e-05 -2.76259489e-05 1.74912147e-05
      -1.86540456e-05 -6.07830807e-05 -9.76972733e-05 -9.14849152e-05
      6.80494195e-05 -1.30695717e-05 -5.06172473e-05 -7.60670764e-06
      -9.34819923e-07 1.38439354e-05 2.76184946e-05 3.46848174e-05
      1.01239102e-05 -7.06055289e-06 -1.66922855e-05 -1.11828886e-05
      -4.79424089e-05 -6.92835238e-05 -0.000100511315 -7.40240212e-05
      -5.81817258e-05 -5.03700212e-05 -3.72454015e-05 -5.36169064e-05
      -9.16076824e-05 -3.18324564e-05 -5.2443298e-05 1.86958778e-06
      -4.66941783e-05 -3.50994233e-05 -2.00983031e-05 -2.58424188e-05
      4.31622066e-05 -2.34523504e-05 -1.04338214e-05 1.40507718e-05
      -2.30827231e-06 -2.35356929e-05 -2.6394966e-05 -3.57140634e-05
      -1.77916118e-05 -7.3088504e-06 -4.74840235e-05 -4.8606802e-05
      -6.6713721e-05 -6.5361106e-05 -8.06422613e-05 -7.89482438e-05
      -6.17644982e-05 -1.67482922e-05 1.83695047e-05 -2.84362577e-05
      -7.02309189e-05 -1.26462955e-05 -4.78793481e-05 -0.000134009082
      -0.000182421572 -0.000147768777 -0.000129847147 -0.000131871275
      -0.000110287001 -0.000142560457 -9.99333497e-05 -8.77231651e-05
      -0.00012000947 -0.000113161419 -7.19679301e-05 -4.96795583e-05
      -4.50696862e-05 -3.65292253e-05 -8.15897147e-05 -5.89102165e-05
      -6.20868304e-05 -6.3143736e-05</_>
    <_>
      -5.50495497e-05 -2.71290319e-05 -5.43176657e-06 -1.95230659e-05
      -1.71942993e-05 -2.0300593e-05 -2.35102361e-05 -3.31674455e-05
      -5.38785971e-05 -5.49342622e-05 -2.010141e-05 -6.19664979e-06
      -1.19358237e-05 -1.22598194e-05 -2.03225336e-05 5.41964619e-06
      1.62953493e-05 2.42534661e-05 1.67890485e-05 8.85908139e-06
      9.51594757e-06 1.72661839e-05 2.42039823e-05 1.82192471e-05
      1.16982765e-05 -5.79490461e-06 -1.25990782e-05 -7.71257419e-06
      -1.67997896e-05 -2.0487194e-05 -4.12267145e-05 -3.04662353e-05
      -1.29646496e-05 -1.25567904e-05 -6.05869627e-06 -2.6097814e-07
      -1.30104063e-05 -2.78710686e-05 -3.02818553e-05 -6.49301437e-05
      -4.30539985e-05 -1.27410585e-05 2.12297891e-06 8.80822518e-06
      4.5937024e-05 7.89821424e-05 0.000106405183 0.000116064919
      0.000130874265 0.000126931249 7.31751643e-05 5.86763708e-05
      3.90552887e-05 2.11467723e-05 3.24101688e-06 -7.7172615e-07
      -1.44057212e-05 -3.09593561e-05 -3.39507824e-05 -2.65001763e-05
      -1.17892931e-07 1.44369706e-05 -3.41628038e-06 6.96588131e-06
      7.97547091e-06 -5.59397595e-05 -5.20860485e-05 -3.36212834e-05
      -1.73693952e-05 4.98934196e-06 3.47457753e-05 3.39590479e-05
      4.75094857e-05 4.97815709e-05 0.000120542558 0.00016828251
      0.000173195309 0.000158031558 0.000126817336 9.90764893e-05
      6.63746687e-05 5.87292634e-05 1.49798143e-05 -1.95525331e-06
      -1.83275861e-05 -3.75068812e-05 -3.34486031e-05 -2.02363499e-05
      -3.23671634e-06 -3.79578432e-06 -6.4693163e-06 2.87170278e-05
      2.33748178e-05 -3.4816785e-05 -4.96022039e-05 -3.28086717e-05
      -4.60815936e-05 -1.20590848e-05 -2.10069993e-06 9.06270816e-06
      2.6268468e-05 5.2379819e-05 4.67563223e-05 8.92642784e-05
      0.000128325235 0.000122843659 0.000128269065 8.04151932e-05
      5.11438229e-05 3.84650921e-05 1.17790796e-05 -1.09921148e-05
      -3.85393014e-06 -2.5270705e-05 -3.18359962e-05 -1.76686008e-05
      9.13153053e-06 3.03120169e-06 1.10455276e-05 2.03220734e-05
      2.41191192e-05 -5.56328851e-05 -7.45514335e-05 -6.03169501e-05
      -1.40465872e-05 5.69032591e-06 3.69064082e-06 -1.80841162e-05
      2.67241085e-05 6.71677772e-05 6.74988478e-05 7.81323397e-05
      0.000125236023 9.86857485e-05 8.65622205e-05 4.31393382e-05
      2.48019533e-05 1.83961874e-05 -1.34224374e-05 -3.12058801e-05
      -6.93707477e-07 -4.3443174e-06 -1.63572477e-05 1.08161339e-05
      -2.37176791e-05 -1.18057178e-05 4.94538726e-05 5.66771596e-05
      4.34882422e-05 -6.4216506e-06 4.70349005e-05 6.72591632e-05
      0.000100903068 9.84784783e-05 0.000109434732 4.64866353e-05
      3.95305033e-05 5.80354172e-05 4.42586424e-05 3.0860152e-05
      5.16898872e-05 5.89890878e-05 6.90622401e-05 3.31439405e-05
      1.07572941e-05 1.26904354e-06 -1.18072312e-05 -2.07667999e-05
      -4.91109517e-07 -7.12915948e-07 4.38681263e-06 2.89635773e-06
      -2.48054112e-05 5.42060343e-06 4.99987e-05 2.90524004e-05
      2.62118938e-05 4.46003287e-05 8.41326546e-05 9.84180151e-05
      0.000100761317 0.000130483488 0.000161232281 9.74452341e-05
      1.5384283e-05 3.25390611e-05 1.48633653e-05 -4.49333238e-05
      -5.69932718e-06 3.25383626e-05 7.50993604e-06 2.6817801e-05
      2.15870978e-06 -1.94241838e-05 1.76963681e-06 -1.51749073e-05
      -5.02970488e-06 7.62232003e-06 4.10409666e-05 2.75952971e-05
      -8.95624544e-06 -1.71800621e-05 4.23363599e-05 2.68198964e-05
      3.25670298e-05 5.18925408e-05 9.59644312e-05 0.00011274196
      8.76589183e-05 0.000121858022 0.000157365692 0.000109415058
      1.00420002e-05 3.10926662e-05 2.00736522e-05 -4.86358913e-05
      -5.95553538e-05 -7.28561281e-06 -3.57777526e-06 1.8344921e-05
      1.24394564e-05 -9.52827486e-06 -9.92144214e-06 -5.7498105e-06
      1.27247142e-06 2.24291907e-05 6.13989178e-05 2.72373036e-05
      1.54625002e-06 1.15629764e-05 5.75176236e-05 4.40363583e-05
      6.62876191e-05 8.03227958e-05 0.000133217996 0.000183186159
      0.000159235467 0.000214214975 0.00022108882 0.000104450242
      9.11890675e-06 3.0564348e-05 -4.13626481e-07 -4.3482818e-05
      -7.79451802e-05 -1.90501032e-05 -3.38631908e-05 2.31386148e-05
      6.63716673e-06 7.65865298e-06 2.68665804e-06 0. -5.27988459e-06
      -1.63041307e-06 4.97279798e-05 2.76992178e-05 3.61612979e-06
      3.2650576e-05 7.7111581e-05 8.07531906e-05 8.32544538e-05
      9.02711836e-05 0.000134802656 0.000158262716 0.000153845132
      0.000187121681 0.000169759063 5.43890783e-05 3.29604154e-05
      3.50638147e-05 -1.20180466e-05 -3.57459794e-05 -5.67366333e-05
      -2.39854417e-05 -4.56252601e-05 2.00623726e-05 1.91344952e-06
      6.82491236e-06 6.03258832e-06 0. -9.82752226e-06 -3.61247476e-06
      2.45269148e-05 4.16701259e-05 3.87844884e-05 4.58759787e-05
      6.34956232e-05 5.19117493e-05 4.41690972e-05 5.27478114e-05
      8.63826644e-05 0.000101221267 0.000118806725 0.000143361845
      8.18280096e-05 4.50150292e-05 8.5544445e-05 1.65208075e-05
      -3.10153264e-05 -4.7734713e-05 -3.05500071e-05 -4.22737648e-05
      -5.31340374e-05 6.17269961e-06 -2.63407242e-06 4.64998948e-06
      7.49708215e-06 0. -9.09527535e-06 -9.76686124e-07 7.79511629e-06
      3.86730098e-05 4.48996871e-05 3.94900308e-05 1.9792642e-05
      3.09510415e-06 -1.25318029e-05 2.49505538e-05 -3.38640166e-06
      -1.57318464e-05 2.07538824e-06 3.57793433e-05 5.02154035e-05
      3.65490923e-05 4.68457583e-05 -4.29216161e-05 4.3242735e-06
      -3.2476255e-06 1.02926369e-05 -4.26807565e-05 -1.2242931e-05
      -7.18787942e-06 -7.06928176e-06 1.53321926e-05 7.72831754e-06 0.
      -4.12859554e-05 -5.62240302e-07 9.99489885e-07 1.60653035e-05
      2.63346192e-05 4.92813706e-06 -8.08372624e-06 -1.38027383e-06
      -2.85354145e-05 -4.72984793e-05 -7.87214231e-05 -7.70341649e-05
      -3.7909238e-05 -5.80119786e-06 -2.10615308e-05 -1.61713469e-05
      -2.67476735e-05 1.25445376e-05 2.81983448e-05 -9.64246101e-06
      2.54600709e-05 -3.03332831e-06 6.95792096e-06 -2.19592584e-05
      -3.60301414e-07 2.39783458e-05 7.72831754e-06 0. -7.16856375e-05
      -1.46182483e-05 2.05023582e-07 2.62686467e-06 3.26756322e-06
      7.61283047e-07 -2.03301079e-05 -7.47221129e-05 -0.000116588395
      -0.000192858977 -0.000212064013 -0.000166505924 -0.000172625616
      -0.000134710441 -9.2543567e-05 -3.6657806e-05 -4.9214108e-05
      -1.68429833e-05 7.95588221e-06 -6.43693102e-06 2.84126927e-05
      5.48476673e-05 1.690977e-06 -2.97796714e-06 1.53388937e-05
      2.21890514e-05 7.72831754e-06 0. -7.16856375e-05 -5.594291e-05
      -3.65456208e-06 1.21732751e-06 2.56279463e-06 1.02511785e-06
      -3.38401223e-05 -7.2707393e-05 -9.75888252e-05 -0.00020239396
      -0.00020463964 -0.000166205456 -0.00013642876 -0.000118289034
      -7.57603484e-05 -4.71348394e-05 -2.46539475e-05 -2.12488776e-05
      -3.59685146e-05 2.13285284e-06 3.23352674e-06 2.35892348e-05
      -3.53569085e-05 -2.02508236e-05 8.30911904e-06 1.49181587e-05
      7.72831754e-06 -4.47776347e-06 -7.16856375e-05 -7.16856375e-05
      -4.72281863e-05 -2.81120151e-06 0. 0. -4.69885308e-05
      -7.03060723e-05 -0.000105232888 -0.000113474569 -0.000104858977
      -6.36779878e-05 -3.36423363e-05 1.10660312e-05 -4.52919448e-06
      -2.25867152e-05 -8.35864466e-06 -2.35853968e-05 -9.95163646e-05
      -9.3762952e-05 -1.03695256e-05 3.34047968e-06 -4.52302702e-05
      -5.6148252e-05 -3.46879679e-05 1.77213724e-06 7.44821818e-06
      -5.57553767e-06 -7.20057797e-05 -7.16856375e-05 -7.16856375e-05
      -2.81120156e-05 0. 0. -3.35146578e-05 -2.38684952e-05
      -3.81683676e-05 -2.61553359e-05 -3.15748912e-05 1.8196788e-05
      2.18396108e-05 6.35596298e-05 6.58355493e-05 4.24505633e-05
      2.09047885e-05 -9.95354003e-06 -9.79846809e-05 -0.000130574364
      -8.62273446e-05 -5.98444167e-05 -6.32588199e-05 -8.28445627e-05
      -4.47706334e-05 -4.07257685e-05 -2.52215177e-05 -9.83864084e-06
      -7.4353462e-05 -7.16856375e-05 -7.16856375e-05 -6.38142737e-05
      -8.71472457e-06 0. 1.44307678e-05 2.4061248e-05 2.15768323e-05
      1.55714861e-05 3.21675143e-05 7.78010653e-05 8.91484669e-05
      9.79254619e-05 0.000124286205 0.000141480254 6.38099445e-05
      -9.37293407e-06 -7.90480626e-05 -0.000137786061 -0.000117184725
      -8.63360692e-05 -7.50130566e-05 -0.000106303705 -7.02838806e-05
      -5.47944765e-05 -5.58421234e-05 -4.515197e-05 -7.60847834e-05
      -7.21884717e-05 -7.3026531e-05 -7.19873424e-05 -4.83526674e-05
      -1.96784117e-06 3.90291534e-05 6.80639423e-05 6.75357442e-05
      7.24043275e-05 9.77125019e-05 0.000152903449 0.000148414518
      0.000138123913 0.00019147234 0.000171507025 7.82507559e-05
      2.09038099e-05 -4.12914269e-05 -0.000120951852 -0.000114259645
      -0.000109275745 -7.61856863e-05 -9.27956353e-05 -7.37663795e-05
      -6.78409342e-05 -6.41716033e-05 -6.09262497e-05 -9.957148e-05
      -7.51700645e-05 -8.02338327e-05 -7.82895368e-05 -7.70492115e-05
      -2.15509626e-05 3.96560681e-05 6.28917696e-05 8.10449055e-05
      0.000101748366 0.000126715386 0.000151874119 0.000136462302
      0.00010567037 0.000208314828 0.000156134149 6.80494777e-05
      1.09114978e-06 -4.75625966e-05 -9.76549563e-05 -9.08214788e-05
      -0.000109753426 -6.85681152e-05 -6.10417337e-05 -6.22189182e-05
      -7.70531915e-05 -7.17959265e-05 -6.5032109e-05 -0.000116141709
      -8.8190056e-05 -8.02338327e-05 -8.19681009e-05 -0.000100403908
      -5.28027085e-05 -8.79445815e-06 -1.42603612e-05 2.72384477e-05
      9.4590876e-05 0.000117088843 0.00013109979 0.000107701897
      9.90453191e-05 0.000163468852 5.9527687e-05 1.85877379e-05
      -2.38446992e-05 -5.93262557e-05 -7.32680273e-05 -5.66501076e-05
      -7.2976567e-05 -4.38184361e-05 -4.26475308e-05 -5.01711183e-05
      -7.62505442e-05 -8.96276688e-05 -6.8501613e-05 -0.000121012388
      -0.000109272536 -8.30071585e-05 -9.1530208e-05 -0.000117763258
      -6.28984417e-05 -7.96587192e-05 -6.78333599e-05 -5.43881288e-05
      -3.11647382e-05 -5.34733263e-05 1.23448999e-05 -1.98102953e-05
      -1.6042417e-05 4.13318594e-05 -4.61882382e-06 -4.94136111e-05
      -7.89942715e-05 -5.83710971e-05 -1.95665889e-05 -4.72106876e-05
      -1.38472351e-05 -2.34452054e-05 -3.87335094e-05 -3.75534364e-05
      -6.32433002e-05 -8.81575834e-05 -6.77921125e-05 -0.000119887329
      -9.61921396e-05 -8.92947355e-05 -0.00010255786 -9.85065781e-05
      -7.49515166e-05 -0.000123637888 -0.000109570123 -8.16719185e-05
      -7.48769889e-05 -8.18635526e-05 -8.83192624e-05 -0.000124815953
      -6.38703204e-05 6.71391535e-06 -3.6163452e-05 -0.000108359272
      -0.000122052312 -4.6699799e-05 1.62397464e-06 3.10998075e-06
      9.53922154e-07 -4.10677967e-06 -1.93244723e-05 -1.83354987e-05
      -5.06970828e-05 -8.68723437e-05 -2.54918286e-05 -6.71830785e-05
      -8.24966846e-05 -8.66522678e-05 -8.50595898e-05 -6.01773754e-05
      -7.12742476e-05 -0.000128885731 -0.000151107874 -0.00011205754
      -0.000109886845 -9.75980074e-05 -0.0001386902 -0.000156899725
      -9.00053201e-05 -2.21072041e-05 -5.17182052e-05 -0.000118952579
      -9.48897869e-05 8.43901034e-06 1.76849389e-05 1.23874979e-05
      4.11678775e-06 1.08068789e-05 2.51242709e-05 4.24217296e-06
      -4.85822529e-05 -6.91964451e-05 -1.83127668e-05 -3.12559823e-05
      -6.47000634e-05 -9.29429953e-05 -5.95704623e-05 -6.17652113e-05
      -5.40827386e-05 -5.1806699e-05 -6.50770671e-05 -0.00010910994
      -8.25969692e-05 -8.59865831e-05 -0.000113136753 -0.000125646286
      -6.24282329e-05 1.56160895e-05 -3.09469506e-05 -6.49857684e-05
      -5.64189759e-05 -2.72358011e-05 2.12006689e-05 2.06503628e-05
      3.74975643e-05 4.58891263e-05 4.44291509e-05 1.52977282e-05
      -1.43844582e-05 -1.77828008e-06 -3.6137169e-06 -3.12559823e-05
      -1.58944022e-05 -4.82030191e-05 -7.92334249e-05 -7.16973664e-05
      -5.86617243e-05 -3.52091956e-05 -9.91853594e-05 -5.63971735e-05
      -3.90226342e-05 -5.29013305e-05 -3.74697702e-05 -7.02646939e-05
      -6.86446438e-05 2.86621671e-05 3.26802081e-07 -4.54929977e-05
      -4.14504648e-05 -3.62349601e-05 2.51110505e-05 6.88634173e-05
      6.49557769e-05 5.29666868e-05 4.01989382e-05 4.43881872e-05
      1.58629919e-05 1.48640502e-05 6.60333455e-07 -8.60494947e-06
      -1.32295486e-06 -1.0490272e-05 -3.12590164e-05 -8.40957182e-06
      8.52820176e-06 1.61320131e-05 -4.28906969e-05 -6.39788414e-05
      -6.69815126e-05 -7.3338495e-05 -5.8733116e-05 -4.37448944e-05
      -3.1447049e-05 -7.8470805e-08 -4.13101734e-05 -3.65673659e-05
      -1.65767651e-05 -1.76764115e-05 1.89130049e-06 4.69753395e-05
      4.60958836e-05 3.56415148e-05 3.81494865e-05 2.65373328e-05
      1.32307168e-05 6.07118409e-06 1.65872927e-06 -6.36088271e-06
      -3.24330631e-06 -1.19522992e-05 -1.44071673e-05 4.11126275e-05
      4.39180913e-05 2.78496027e-05 5.97426697e-06 -3.49579313e-05
      -4.77201174e-05 -8.94235636e-05 -7.62291311e-05 -7.26941871e-05
      -7.39633833e-05 -6.54293835e-05 -8.70656586e-05 -7.13983172e-05
      -6.29034257e-05 -6.66474371e-05 -4.60977135e-05 -8.75604564e-06
      1.70345393e-05 1.52913944e-05 -5.90766058e-06 -6.17721435e-06
      2.86259524e-06 1.19255049e-07 -6.40276539e-07</_>
    <_>
      -4.52447712e-05 -3.46195011e-05 7.06261972e-07 0. 0. 0. 0.
      -9.65572553e-07 -3.36285598e-06 0. 6.58204556e-07 7.40365408e-07
      -3.64367907e-06 -2.63183915e-06 -4.59047487e-06 -2.64240989e-05
      3.06081665e-06 3.91489266e-05 5.35318286e-05 2.80987169e-05
      2.0331132e-05 -1.65453741e-06 -1.11582594e-05 1.0308132e-05
      1.1640861e-05 1.00647603e-05 6.56428165e-06 4.38561801e-06
      -4.88053483e-05 -1.3910977e-05 1.05767128e-06 9.16992121e-07 0.
      -2.00533918e-06 -6.8161562e-06 -2.47019125e-05 -2.79601591e-05
      -4.22216981e-05 -3.96159849e-05 -4.33572241e-05 -5.75737249e-06
      1.70313833e-05 1.85908975e-05 -3.91364265e-05 -7.05793427e-05
      -9.97310708e-05 -1.26698278e-05 2.73627229e-05 5.1153118e-05
      2.28593799e-05 -2.82098335e-05 -3.44056789e-05 -4.4280755e-06
      5.13941995e-06 1.68769918e-06 -1.4716195e-06 -3.82774851e-05
      -5.79447828e-07 0. 3.06940535e-07 4.43143517e-06 1.81108226e-05
      7.91346611e-06 -1.81236544e-07 1.67932958e-05 1.53584351e-05
      2.70759356e-05 3.72489267e-05 7.56472946e-05 9.31123577e-05
      3.62530227e-05 -2.5908832e-05 -8.40193898e-05 -6.89393419e-05
      -3.00148895e-05 -2.5107649e-05 5.77768478e-05 1.23072605e-05
      -1.6326419e-06 -2.35673106e-05 -2.45920055e-05 -2.37467448e-05
      -1.12811294e-05 -6.13403336e-06 -1.6696431e-05 0. 0.
      -2.30832529e-06 1.49485061e-06 2.64586652e-05 1.98511843e-05
      5.70456759e-05 5.77825194e-05 5.35596118e-05 6.13060402e-05
      7.32980188e-05 9.43536288e-05 0.000124176426 6.08119699e-05
      1.0116255e-05 -2.84340895e-05 -4.75675624e-05 -1.24445769e-05
      8.03885541e-06 5.7767018e-05 7.25419568e-06 -3.44319733e-06
      -1.63939894e-05 -1.30090175e-05 -6.48008336e-06 -4.02575315e-05
      -4.43021854e-05 0. 5.31374496e-07 1.59412355e-06 8.96649362e-06
      3.64233711e-05 5.06975412e-05 6.68648281e-05 7.64482902e-05
      8.20056594e-05 9.08168731e-05 9.2797025e-05 0.000100032194
      0.000129083142 0.000101773767 4.35874026e-05 -3.66675849e-05
      -4.12068366e-05 -2.5964302e-05 2.49273344e-05 2.26677639e-05
      3.36762714e-05 1.7108212e-05 -8.62419483e-07 -9.47506805e-07
      -9.97679399e-06 -1.64521807e-05 -3.83130937e-05 -3.67320426e-05
      -1.81588905e-06 7.26199551e-06 2.2753462e-05 3.02113131e-05
      5.10819882e-05 6.24190288e-05 9.47561057e-05 9.76730153e-05
      0.000109009154 0.000109823159 0.000111018846 0.000142847042
      0.000134874179 9.97867173e-05 2.82525216e-05 -2.17951929e-05
      -2.02218489e-05 9.88621287e-06 4.55234367e-05 7.1870395e-06
      1.46693374e-05 1.25760444e-05 4.70570285e-07 5.63550475e-06
      -7.10379436e-06 -3.7674763e-05 -3.70839662e-05 -1.69659925e-05
      -3.764648e-06 4.23551364e-06 2.05728647e-05 2.92242294e-05
      3.53045471e-05 8.08190307e-05 9.49207242e-05 0.000107689186
      0.000113460839 0.000114511095 0.000128822721 0.000138464398
      0.000107612395 7.37278024e-05 4.57932329e-05 -6.08815435e-06
      -2.11752395e-05 3.18290186e-05 5.29124627e-05 2.08123292e-05
      1.52101175e-05 6.19246021e-06 -7.98308008e-07 3.17271633e-06
      -2.39990986e-05 -3.81238024e-05 -2.57321735e-05 -5.10695372e-07
      -1.22535607e-06 6.03049284e-06 2.1584865e-05 2.5547155e-05
      2.67182313e-05 2.08949696e-05 -1.17205934e-06 1.12237576e-05
      1.40498669e-05 4.5457793e-05 8.53175734e-05 4.67577411e-05
      5.30670295e-05 -8.91481341e-06 4.19159733e-05 -1.27606536e-05
      -2.86631839e-05 5.28928576e-05 5.81136737e-05 3.05365575e-05
      1.11403915e-05 2.03801483e-06 -1.31729075e-06 5.17802619e-07
      -3.38676291e-05 -3.05479371e-05 -2.29318607e-06 2.02944943e-06
      2.7919782e-08 1.08513614e-05 3.31360025e-05 3.52890129e-05
      6.94999289e-06 -2.94015408e-05 -4.69010265e-05 1.09197572e-05
      6.62066232e-05 8.01724309e-05 2.2621718e-05 3.27522466e-05
      -2.68566091e-05 -1.5500782e-05 3.41356781e-06 -1.24844173e-05
      -1.84027351e-06 0.000103667 5.09778074e-05 3.26866866e-05
      5.64215907e-06 -1.38097576e-07 -3.87318505e-06 -1.85813606e-05
      -3.54075455e-05 -2.42615661e-05 5.21845413e-06 0. -2.89361174e-06
      5.9899179e-07 2.01033599e-05 6.667261e-06 -4.18076488e-05
      -7.33073466e-05 -2.56893018e-05 -7.76105117e-06 3.07883492e-05
      -1.93783744e-05 -2.64175251e-05 -1.60798918e-05 -5.76577077e-05
      -1.13576007e-05 1.18897124e-05 4.32821507e-05 5.71738419e-05
      0.000101553567 2.56942658e-05 4.11812616e-05 5.14605335e-06
      -6.91990806e-07 -7.1392119e-06 -3.43774263e-05 -2.7162765e-05
      -6.67309905e-06 8.50199194e-06 0. 0. -1.03540447e-06
      1.02009471e-05 -2.90672706e-05 -4.77607064e-05 -7.96500026e-05
      -4.97775545e-05 -2.9535162e-05 -2.27305536e-05 -5.15745924e-05
      -2.78948519e-05 -8.65769034e-05 -1.35118762e-06 -2.80310742e-05
      7.07324652e-05 7.6939803e-05 8.38852211e-05 6.97758078e-05
      1.27401472e-05 4.69086153e-05 1.11918844e-05 -4.10120583e-06
      -1.71109041e-05 -3.45936969e-05 -2.62833528e-05 1.23465043e-05
      8.50199194e-06 0. 0. 0. -4.38453981e-06 -3.73204784e-05
      -5.85390771e-05 -8.32382939e-05 -8.53834208e-05 -6.624448e-05
      -0.000104916879 -2.39680121e-05 -0.000109256296 -6.94345072e-05
      6.33241962e-06 -1.2432859e-05 0.000117068324 6.72024398e-05
      8.85756381e-05 4.17931151e-05 -2.78614721e-06 4.30207729e-05
      1.21749772e-05 -3.40349334e-06 -3.41042978e-05 -2.87229232e-05
      -1.41149476e-05 2.25834174e-05 8.50199194e-06 0. 0.
      -9.15326211e-07 -1.15818023e-06 -2.23380321e-05 -7.09701999e-05
      -9.94545117e-05 -0.000112829352 -0.000171978973 -0.000169420658
      -0.000112109323 -0.000113195674 -6.95603812e-05 5.18069919e-06
      4.76701061e-05 0.000119854827 5.19239293e-05 6.48461501e-05
      1.61503121e-05 -8.12966209e-06 3.62562678e-05 1.81809046e-05
      -8.63319929e-06 -3.52666175e-05 -3.22333872e-05 5.58627971e-06
      2.25834174e-05 8.50199194e-06 0. -3.10029833e-07 -2.79026858e-06
      -3.17945864e-06 -5.4357215e-06 -5.263813e-05 -9.39358506e-05
      -0.000203781063 -0.000241620437 -0.000189596831 -0.000169536463
      -0.000111347683 -8.8771907e-05 2.018952e-05 7.58285823e-05
      0.000122289493 5.68116557e-05 2.51306392e-05 -4.52083987e-06
      2.38974189e-05 2.99041021e-05 2.1490876e-05 1.7604591e-06
      -2.25845251e-05 -2.14546199e-05 2.10382223e-05 2.25834174e-05
      8.50199194e-06 0. -1.63872915e-06 -3.764648e-06 -2.18497212e-06
      -1.09675684e-05 -4.95968779e-05 -0.000112761401 -0.000205259901
      -0.000227319091 -0.000171449108 -0.000109227214 -9.29505841e-05
      -6.84449988e-05 -5.51849371e-06 5.38890199e-05 8.94991754e-05
      3.99301171e-05 4.3612049e-06 -8.80408606e-06 3.33948847e-05
      2.95905265e-05 5.88139346e-06 -1.8565778e-06 -3.42010426e-05
      1.44977989e-07 2.21898881e-05 1.86930574e-05 2.28989734e-06
      -9.30159615e-07 -2.1554456e-06 -2.19973549e-06 -2.22922108e-06
      -2.03822128e-05 -6.37704652e-05 -0.000153370813 -0.000172041196
      -0.000171819702 -0.000116758587 -9.7526201e-05 -8.624162e-05
      5.53998188e-06 -3.24660459e-06 3.64284533e-05 2.32206839e-05
      7.30954616e-06 -2.36228389e-05 1.45621539e-06 3.91977919e-05
      2.60952675e-05 -1.31706463e-06 -1.31023889e-05 -3.07622904e-05
      1.11417535e-07 9.57851171e-06 3.72727118e-06 -1.57865961e-05
      -1.22781694e-05 0. -2.0703007e-07 -4.70993382e-06 -3.66514141e-05
      -8.58246785e-05 -0.000162035853 -0.000202962983 -0.000223452851
      -0.000170116909 -0.000157905466 -8.21450376e-05 -1.52830908e-05
      -1.2700466e-05 3.00644879e-05 -6.86380827e-06 -3.96460837e-06
      -3.25248948e-05 -2.9581206e-05 4.945623e-05 1.83004013e-05
      -2.82411183e-05 -3.9976323e-05 -1.86254092e-05 -1.73369444e-05
      -1.53644323e-05 -1.66881819e-05 -3.30588809e-05 -3.28084425e-05 0.
      -4.39938873e-07 -1.94263212e-05 -4.29456377e-05 -0.000111082496
      -0.000168383311 -0.000233233091 -0.000184595454 -0.000159019954
      -0.000140377873 -0.000111771202 -8.28595439e-05 -4.7999958e-05
      -2.96921789e-05 -5.59678265e-05 -7.66773519e-06 -5.13253508e-05
      -4.92205181e-05 -2.55757659e-05 -6.49729482e-05 -5.70633165e-05
      -5.12928491e-05 -3.18870462e-07 -2.76419905e-05 -3.09065035e-05
      -3.57635545e-05 -5.03777919e-05 -5.49120414e-05 0. -4.95246195e-06
      -2.7784652e-05 -4.52999884e-05 -0.000111712754 -0.000164239449
      -0.000220909773 -0.000173202847 -0.000163425386 -0.000145834667
      -0.00012695558 -0.000108852146 -7.91544298e-05 -9.56682998e-05
      -9.70557303e-05 -9.44369531e-05 -0.000155646834 -6.75984047e-05
      -9.31502873e-05 -0.000101896636 -9.83227073e-05 -5.52979691e-05
      6.4206738e-06 -1.51210197e-05 -3.43028514e-05 -3.3798151e-05
      -4.51785636e-05 -4.44435609e-05 0. -3.86006241e-06 -4.25925573e-05
      -5.41864065e-05 -6.7110188e-05 -8.01450296e-05 -0.000125464343
      -0.000143985453 -0.00016170046 -0.000165560297 -0.000124305006
      -0.000125687133 -9.04109183e-05 -0.000106776301 -9.78664175e-05
      -9.63245548e-05 -0.000159480609 -8.03327275e-05 -0.000106884305
      -0.000102517588 -7.79914699e-05 -6.66312844e-05 -3.73095791e-05
      -7.52517053e-06 -4.36310183e-05 -1.98942835e-05 -3.01864857e-05
      -3.26903464e-05 0. -2.41085218e-06 -3.94581475e-05 -5.92152319e-05
      -7.98890178e-05 -4.70866071e-05 -7.85225857e-05 -8.07151082e-05
      -6.61719023e-05 -7.57141461e-05 -0.000100987025 -0.000143839134
      -0.000143418321 -0.000135903756 -0.000143091529 -0.00012250882
      -0.000149413769 -0.000114096278 -0.000103572755 -0.000105919586
      -4.68681319e-05 -5.32289232e-05 -6.29950591e-05 -3.24455032e-05
      -4.89016638e-05 -5.29932822e-06 -1.37263214e-05 -1.53638011e-05 0.
      -2.28145836e-06 -4.27326959e-05 -5.75480553e-05 -6.67608256e-05
      -1.77942184e-05 -8.94212121e-07 9.67102824e-06 9.87606472e-06
      1.17359459e-05 -2.67543583e-05 -0.000112813315 -0.000132851463
      -0.00011077441 -0.000122064943 -0.000123016478 -0.000120180746
      -0.000102285529 -5.76084349e-05 -7.64900105e-05 -2.61609239e-05
      -2.15943164e-05 -5.19283894e-05 -4.42661185e-05 -6.83761609e-05
      -2.81672856e-05 -6.8618092e-06 -1.53638011e-05 0. -2.72408784e-06
      -2.85634706e-05 -5.29758727e-05 -2.3597544e-05 3.25237306e-06
      8.30622503e-06 2.92712161e-06 -3.39854722e-07 1.95608027e-05
      -3.041323e-05 -6.92590038e-05 -6.6977751e-05 -4.08983105e-05
      -2.86432733e-05 -3.97191106e-05 -6.60832375e-05 -7.07329527e-05
      -1.28452193e-05 -1.85546687e-05 -1.80098014e-05 -2.55458435e-05
      -4.85230412e-05 -5.36022671e-05 -5.53333921e-05 -3.50111113e-05
      -8.17406453e-06 -1.92267871e-05 -8.92974867e-08 -8.79580239e-06
      -2.25243148e-05 -3.39827347e-05 2.93824519e-06 9.2663031e-06
      1.50060177e-05 2.73533697e-05 3.05441063e-05 4.89050144e-05
      -2.28716963e-05 -6.981146e-05 -5.78195795e-05 -2.73161531e-05
      -7.78218418e-06 -1.91908657e-05 -5.66438139e-05 -3.1842872e-05
      -2.82701531e-05 -1.75426721e-05 1.24557664e-05 -1.00786638e-05
      -5.02581861e-05 -5.51677658e-05 -4.39876239e-05 -1.87504902e-05
      -1.37130392e-05 -2.81116536e-05 -6.37980156e-06 -1.24188628e-05
      -1.24188628e-05 2.05603701e-05 2.97462357e-05 2.38921748e-05
      2.41460257e-05 2.64272912e-05 4.53265638e-05 5.0169856e-05
      -4.11589353e-05 -4.93441294e-05 -3.33690405e-05 -7.27592169e-06
      -1.26865143e-06 -2.52717618e-05 -4.9400398e-05 -3.08889466e-05
      -5.52134625e-05 -1.37077068e-05 -1.32771183e-05 1.12053394e-05
      8.64724552e-06 -1.90396568e-05 2.88102029e-07 -1.50998892e-06
      -1.66561513e-05 -1.90937189e-05 -5.01481281e-06 -1.49268344e-05
      -1.51500781e-05 2.72358875e-06 2.69281463e-05 3.54505864e-05
      4.26543083e-05 4.38508941e-05 7.06115825e-05 4.47655366e-05
      -4.2596701e-05 -1.48443596e-05 5.11723385e-07 4.27174673e-05
      2.85245496e-05 -3.41859732e-06 -4.8530972e-05 -2.75808688e-05
      -5.79976804e-05 -1.29705704e-05 -4.43821136e-06 1.47952287e-05
      2.05868346e-05 1.15304274e-05 1.01717151e-05 6.76754644e-06
      -4.14936267e-06 -1.69817122e-05 -3.764648e-06 -1.25158022e-05
      -1.51500781e-05 -1.51500781e-05 -1.68360366e-05 -1.97259924e-05
      1.00360944e-06 2.04507669e-05 3.34620454e-05 1.13003525e-05
      -4.07361986e-05 -5.64431175e-05 -3.58317193e-05 -3.03739744e-05
      -1.31986908e-05 -2.52364189e-05 -7.2635652e-05 -4.14229253e-05
      -3.57108293e-05 -1.89024231e-05 -1.7821734e-06 6.68777557e-06
      5.13947771e-06 1.35980526e-05 1.82812691e-05 1.36453227e-05
      -1.01159628e-06 -5.44394015e-06 -1.63275872e-05 -1.50175219e-05
      -1.28729916e-05 -9.25644326e-06 -4.95881113e-06 -8.14717896e-06
      -7.23994754e-06 -1.82247038e-06 0. 2.66223509e-07 9.30291844e-06
      1.47744031e-05 9.14977045e-06 1.63532677e-05 3.13475721e-05
      -4.7347753e-06 -1.89740203e-05 -4.45552469e-05 -2.08555612e-05
      -1.75344649e-05 -1.66995251e-05 -1.8457964e-05 2.95918403e-06
      1.94313202e-06 -3.08957124e-06 -1.29138571e-05 -2.38843459e-05
      -2.66962434e-05</_>
    <_>
      -9.41909821e-06 -8.63251626e-06 -1.51679651e-05 -1.65698275e-05
      -1.1014934e-05 -1.89542254e-06 8.85562201e-07 9.37854111e-07
      1.19457661e-06 2.90820253e-06 5.96822201e-06 9.76620959e-06
      1.2454924e-06 -1.06143652e-05 -2.70156088e-05 -3.34191536e-05
      -1.75786372e-05 -2.35949119e-06 -4.62153002e-06 -2.66917832e-05
      -4.13794951e-05 -2.54169809e-05 -2.47646167e-05 -4.08093001e-05 0.
      0. 0. 0. -9.41909821e-06 -2.765717e-05 -6.2068626e-05
      -5.08814628e-05 -3.3831333e-05 -3.21436928e-05 -1.7261802e-05
      -1.3272841e-05 -2.38846915e-05 -3.8011367e-05 -4.9632079e-05
      -4.44887264e-05 -4.57764836e-05 -3.65865017e-05 -3.81346108e-05
      -4.8957605e-05 -3.56328637e-05 -1.98012767e-05 4.63862016e-05
      4.399924e-05 5.48153039e-05 6.47148117e-05 2.84726539e-05
      1.61535918e-05 9.81193898e-06 9.81193898e-06 3.68995984e-06
      4.75127399e-06 -2.69689408e-05 -5.14010753e-05 -9.71683112e-05
      -8.28807824e-05 -3.24055909e-05 2.12258669e-06 3.35213463e-06
      -7.21279548e-06 -1.05924946e-05 -4.77219437e-05 -1.83491993e-05
      1.86002817e-05 4.96144348e-05 4.93501429e-05 1.78295104e-05
      -2.46975324e-05 -6.39500695e-06 -1.27346379e-06 5.00908754e-05
      5.08064149e-05 6.22929729e-05 4.32247652e-05 4.89463891e-05
      4.53938483e-05 4.8461221e-05 5.0553841e-05 1.80755069e-05
      3.2153097e-05 -9.71683112e-05 -9.71683112e-05 -9.71683112e-05
      -7.95322776e-05 -2.16309054e-05 6.22788821e-06 1.52763096e-05
      1.4234336e-05 2.22481067e-05 8.17403634e-06 -6.67423092e-06
      2.20463189e-05 3.54864605e-05 2.26184748e-05 4.65173935e-06
      -4.15379582e-05 -3.0594907e-05 -4.50980078e-05 -6.92899266e-05
      2.76532064e-05 8.67915805e-05 6.30575305e-05 4.7286223e-05
      3.41721716e-05 2.92892382e-05 2.55283576e-05 5.29765612e-06
      1.62089582e-05 -2.69689408e-05 -5.08978992e-05 -9.56544245e-05
      -7.1275339e-05 5.92710194e-06 2.13244293e-05 3.26022564e-05
      -4.04374659e-05 -4.05751089e-05 -3.01664295e-05 -4.30619257e-05
      -4.56190355e-05 -1.0086088e-05 -2.8447761e-05 -5.39409775e-05
      -9.92200949e-05 -9.45518696e-05 -8.15838284e-05 -0.000102670463
      1.41700821e-05 4.37411509e-05 4.46642371e-05 3.57552417e-05
      3.26747468e-05 2.72890084e-05 2.06337554e-05 -8.67877043e-06
      1.17288673e-05 -2.93646717e-05 -4.01389625e-05 -5.33075217e-05
      8.99605493e-06 3.74824995e-05 5.64848124e-05 0.000108846158
      1.38904497e-05 -2.07975627e-05 1.79196741e-06 2.33635801e-05
      2.67323212e-05 2.96343169e-05 3.63514519e-05 2.87131224e-05
      -2.15338223e-05 -4.56406124e-05 -5.2922991e-05 -7.10424865e-05
      -3.21917942e-05 -1.94356653e-05 -1.16838673e-05 -1.6557693e-05
      -7.64524702e-06 -3.50737514e-06 -2.67355313e-06 -8.20718196e-06
      7.58918304e-06 -4.4495795e-05 -3.70320122e-05 -7.75019635e-06
      5.05416028e-05 7.06813371e-05 0.000108735985 0.000138842093
      5.33467137e-05 2.87955936e-05 6.06882968e-05 9.55976357e-05
      9.3202616e-05 3.6022946e-05 8.50469951e-05 9.89669497e-05
      6.13696175e-05 3.06430375e-05 6.66299384e-05 6.47438792e-05
      -1.15974069e-06 -1.25071092e-05 -1.14925106e-05 -3.17904342e-05
      -3.6454072e-05 -4.59543553e-05 -3.58252e-05 -2.06463865e-05
      -7.8337016e-06 -4.4495795e-05 -2.65993458e-05 1.43322468e-05
      2.34150375e-05 2.14979336e-05 4.97268338e-05 7.25644641e-05
      4.05889159e-06 -4.88406295e-06 3.02779299e-05 4.8547914e-05
      0.000103947059 0.000100594196 0.000153242101 0.000170194602
      0.000131982684 0.000114574963 0.000119779725 0.000107644111
      3.68752844e-05 1.02656595e-05 1.46926095e-05 -8.74701618e-06
      -1.96852961e-05 -2.47799471e-05 -4.09286913e-05 -2.39317797e-05
      -8.26440737e-05 -3.69781374e-05 -2.97242423e-06 1.64801495e-05
      2.06118639e-05 1.80610004e-05 4.33636924e-05 6.51185837e-05
      4.49945692e-05 1.60579802e-05 2.79687856e-06 3.64226071e-05
      8.5249354e-05 8.54091268e-05 0.000129124484 0.000142135861
      0.000121814541 0.00015190574 0.000108189197 7.06283608e-05
      3.35501645e-05 2.20782094e-05 1.47003429e-05 -5.98627776e-06
      -5.82883695e-06 -4.83853273e-06 -1.38096002e-05 -4.02996848e-05
      -8.89433431e-05 -4.4495795e-05 -3.33083663e-05 1.09729717e-06
      5.94951871e-06 9.415975e-06 2.85623428e-05 4.22207449e-05
      -9.67979076e-07 -2.62691592e-05 -3.40806691e-05 6.55305212e-06
      7.25724749e-05 4.66207421e-05 0.000109428307 0.000117773248
      0.000116914372 0.000154691792 9.50019821e-05 4.56013331e-05
      3.6610094e-05 6.31053699e-05 3.28798415e-05 1.08776958e-05
      5.16740465e-06 -8.1956041e-06 -1.23161462e-05 -1.52059047e-05
      -9.50333852e-05 -7.36963339e-05 -4.37286872e-05 -1.84141281e-05
      -5.3732947e-06 3.65687192e-05 1.54452955e-05 -1.1129513e-05
      -6.15014942e-05 -5.82485118e-05 -6.80903395e-05 -2.19550457e-05
      6.25050016e-05 3.93701048e-05 8.45165996e-05 0.000124213751
      0.000121121251 0.000120144083 4.93813823e-05 3.33718635e-05
      2.86733612e-05 6.5907916e-05 3.23674503e-05 2.06562527e-05
      2.57305765e-05 -8.18947592e-06 1.10683195e-05 7.2815792e-06
      -0.000104849103 -4.4495795e-05 -4.29813517e-05 -2.86251452e-05
      3.23386075e-06 3.13079217e-05 2.48367155e-06 -2.08892088e-05
      -5.3439162e-05 -7.78992035e-05 -0.000106253276 -0.000107848035
      -7.26974031e-05 -7.1578499e-05 -2.63441943e-05 1.80736515e-05
      1.50629603e-05 2.8501594e-05 1.4216597e-06 2.7781316e-05
      5.36746229e-05 8.09820776e-05 2.96675425e-05 1.29311884e-05
      -1.12956686e-05 1.19918159e-05 2.13849944e-05 5.27544717e-06
      -0.000106640291 -4.4495795e-05 -3.3230117e-05 -1.58189032e-05
      1.3961363e-05 1.28204892e-05 -2.63582006e-05 -2.78515399e-05
      -7.08662337e-05 -0.000120363315 -0.000158763898 -0.000170750296
      -0.000175087654 -0.000130993576 -7.24403726e-05 -2.13219755e-05
      1.57887443e-05 -3.47598143e-05 -5.84241934e-05 -4.48278261e-05
      4.83630174e-05 9.00181767e-05 3.6179852e-05 7.83416726e-06
      -3.06858929e-05 -2.37431068e-05 1.97513982e-05 7.35322692e-06
      -9.20169332e-05 -3.68497058e-05 -1.32499663e-05 0. -9.61694241e-07
      -2.44029907e-05 -3.06540023e-05 -4.00364042e-05 -0.000133867594
      -0.000192949024 -0.000212599727 -0.000163832374 -0.000155790709
      -0.000138832591 -9.85401857e-05 -6.47826455e-05 -4.11582041e-05
      -9.71830159e-05 -0.000100453391 -2.9633673e-05 -1.92809275e-05
      3.79229568e-05 4.87267389e-05 2.91262427e-06 -3.06858929e-05
      -3.06858929e-05 1.11750169e-05 8.05082163e-06 -6.47313354e-05
      -4.7524878e-05 -1.21048997e-05 0. 0. -4.44783564e-06
      -8.89567127e-06 -1.93035212e-05 -0.000130841014 -0.000128337429
      -0.000156021997 -0.000112321839 -9.94868533e-05 -9.3534225e-05
      -5.25637661e-05 -2.20285092e-05 2.68558233e-05 2.13580097e-05
      7.00180271e-06 -1.97872191e-06 -2.55505038e-05 -4.3316315e-05
      2.88008414e-05 -2.51482179e-05 -3.07575392e-05 -3.06858929e-05
      -4.95674749e-06 7.12738074e-06 -6.27350528e-05 -4.48488317e-05
      -1.21048997e-05 0. 0. -2.40880195e-06 -5.26495278e-05
      -3.35587938e-05 -6.44797592e-06 -1.37734578e-05 -5.70534467e-05
      -5.05127609e-05 -3.75550917e-05 -2.306038e-05 5.88787261e-05
      6.7408022e-05 1.6228485e-05 -1.52263956e-05 -3.32870695e-05
      -2.26322809e-05 -2.69492248e-05 -4.74376175e-05 2.43085697e-06
      -2.96599883e-05 -3.88537155e-05 -4.51387023e-05 -6.80204539e-05
      -1.77809088e-05 -3.94156777e-05 -2.48296619e-05 -4.37604967e-06 0.
      0. -3.78526011e-06 -8.7749213e-05 -5.38564709e-05 3.34160286e-05
      1.9380459e-05 -1.49557181e-05 -1.43318102e-05 3.86460597e-05
      4.05745914e-06 6.48461646e-05 7.68569007e-05 3.15621473e-05
      -1.43819152e-05 -5.91814605e-05 -9.16080808e-06 -5.42905618e-05
      -7.96410313e-05 -5.13308078e-05 -2.85052156e-05 -4.93610496e-05
      -5.84279369e-05 -0.000103120139 -3.08572598e-05 -3.90668793e-05
      -1.82701315e-05 -6.37663425e-06 0. 0. -3.78526011e-06
      -8.7749213e-05 -3.59274054e-05 5.10303362e-05 4.3578988e-05
      3.63211693e-05 5.92003635e-05 8.73198805e-05 5.48663193e-05
      9.16210192e-05 8.15623935e-05 7.27268271e-05 7.47380454e-06
      -5.45049443e-05 -6.56887205e-05 -0.00010618964 -0.000165074613
      -8.50931174e-05 -2.02216652e-05 -5.29660902e-05 -6.70256486e-05
      -0.000103120139 -3.08572598e-05 -9.41909821e-06 -2.07205267e-05
      -8.81265169e-06 0. 0. -3.78526011e-06 -8.7749213e-05
      -1.31138449e-05 5.10303362e-05 5.10303362e-05 5.14987842e-05
      8.43725211e-05 9.67710512e-05 6.3047999e-05 7.81938579e-05
      8.61320514e-05 7.6071301e-05 -1.09725297e-05 -3.13311284e-05
      -5.7872614e-05 -7.45908619e-05 -0.00015443856 -8.58030617e-05
      -1.86300749e-05 -4.54363508e-05 -7.51170082e-05 -0.000108159635
      -7.75886947e-05 -7.96184686e-05 -6.97284195e-05 -3.46893903e-05
      -8.3101213e-06 -6.64877518e-07 -4.25684857e-06 -8.49163116e-05
      -1.65435904e-05 1.5930651e-05 4.17392439e-05 5.75585873e-05
      8.84963811e-05 0.00011474573 9.43008563e-05 7.4364063e-05
      8.90518932e-05 0.000114615337 -2.53448525e-05 -3.5893263e-05
      -4.85864475e-05 -7.37428272e-05 -0.000137777024 -6.94143237e-05
      -4.8290156e-05 -3.68787842e-05 -7.56296795e-05 -9.40464161e-05
      -8.91174932e-05 -9.71683112e-05 -7.10622917e-05 -6.28482303e-05
      -3.99226155e-05 -1.80278203e-05 -1.39498734e-05 -7.83895448e-05
      -5.47571362e-05 -8.17284235e-05 -2.95815971e-05 2.42253773e-05
      6.52642339e-05 0.000111689507 9.70369438e-05 7.67032252e-05
      7.48894599e-05 6.25256289e-05 -5.08221092e-06 -4.41460725e-05
      -5.06351498e-05 -9.57659722e-05 -0.000103877013 -5.52770653e-05
      -9.37148143e-05 -3.33692478e-05 -5.78017243e-05 -9.3971059e-05
      -8.91174932e-05 -9.71683112e-05 -7.98949914e-05 -7.18433366e-05
      -3.74722331e-05 -3.25803303e-05 -3.66266686e-05 -7.97655157e-05
      -6.99081502e-05 -0.000105470237 -6.31722505e-05 -2.28525332e-05
      2.85092779e-06 4.59415787e-05 2.14288434e-06 2.81982466e-06
      2.85320493e-05 2.33359315e-05 2.50521425e-05 1.91639992e-05
      -7.95086307e-05 -6.31269286e-05 -5.71646633e-05 -2.54303068e-05
      -8.45095201e-05 -2.94493948e-05 6.48085415e-06 -7.65816822e-07
      -3.31203319e-06 -9.41909821e-06 -9.47865919e-05 -8.80645457e-05
      -3.53423748e-05 -4.89486374e-05 -4.04485399e-05 -0.000102388651
      -9.65951622e-05 -0.000116606614 -0.000111878056 -4.08792439e-05
      -2.71427743e-05 -2.08702841e-05 -5.06049801e-05 -3.33816279e-05
      -1.45977874e-05 -2.99637522e-05 -4.76743808e-05 -2.28739736e-05
      -3.48022913e-05 -2.56252952e-05 -2.54789702e-05 -1.94947752e-05
      -5.56359155e-05 1.69087871e-05 2.48666092e-05 3.11486315e-06
      -2.62265098e-06 -9.41909821e-06 -8.2468614e-05 -8.70298318e-05
      -4.16584589e-05 -7.07116196e-05 -4.78611619e-05 -0.000103683939
      -9.22668114e-05 -9.75651055e-05 -0.000102165141 -5.66895542e-05
      -8.06746611e-05 -0.000138161646 -0.000135352078 -0.000122783284
      -9.05859924e-05 -7.91738275e-05 -2.55192517e-05 -1.22640017e-07
      -2.83679256e-05 -2.60240759e-05 -8.69765336e-06 1.88752165e-05
      7.89389742e-06 5.16516739e-05 3.6663012e-05 3.83133874e-06
      6.06826097e-06 -6.64877518e-07 -6.14899836e-05 -5.52362471e-05
      -2.82559267e-05 -3.05797621e-05 -3.56733217e-05 -4.73497639e-05
      -4.22257799e-05 -3.24428984e-05 -2.03275649e-05 6.51395749e-06
      -1.20483919e-05 -5.06888864e-05 -5.5433291e-05 -0.000132362271
      -0.000116649513 -0.000137544557 -9.54400457e-05 -8.49267308e-05
      -3.41677187e-05 -1.56612041e-05 -1.06345374e-06 9.52105183e-05
      9.22006802e-05 7.60586772e-05 5.0897539e-05 2.13214134e-05
      1.31059346e-06 -2.61469449e-05 -4.1682626e-05 -2.69802604e-05
      -2.0423553e-05 -3.1087824e-05 -1.36821809e-05 -1.77110087e-05
      -3.45546869e-05 -4.26142069e-05 -3.04563255e-05 -1.95008142e-05
      -5.40094734e-05 -6.03493136e-05 -7.56687587e-05 -0.000146048493
      -0.000122236699 -0.000137439842 -8.67847557e-05 -5.56603372e-05
      -4.33332461e-05 -6.84993483e-06 4.26856168e-05 9.3202776e-05
      8.35022147e-05 6.25301545e-05 5.55290644e-05 3.00362062e-05
      -3.09118832e-06 -3.50766968e-05 -9.41909821e-06 -9.41909821e-06
      -2.0423553e-05 -4.4495795e-05 -4.4495795e-05 -4.32950837e-05
      -2.94840756e-05 -2.40952741e-05 -3.53708638e-05 -5.22791997e-05
      -6.78778961e-05 -6.39400678e-05 -6.95333656e-05 -0.000126821396
      -0.000101515543 -0.000112754387 -6.92393078e-05 -2.21501286e-05
      -2.85369333e-05 -1.30271028e-05 5.72251847e-05 7.701703e-05
      6.12299482e-05 4.05205865e-05 2.12251289e-05 -1.39819094e-05
      -9.92306923e-06 -6.00356871e-05 -6.6548746e-06 -6.6548746e-06
      -1.76593294e-05 -4.19371754e-05 -4.4495795e-05 -4.4495795e-05
      -4.4495795e-05 -4.4495795e-05 -4.4495795e-05 -4.46472404e-05
      -4.84642806e-05 -4.57942515e-05 -4.54497822e-05 -0.000109022018
      -0.000126552608 -0.000165148798 -0.000152993045 -0.000111979127
      -8.96328784e-05 -3.89216329e-05 4.71831845e-05 3.72394788e-05
      1.81106625e-05 -9.49146124e-06 -1.37682373e-05 -4.09648746e-05
      -9.60324469e-05 -0.000132872636</_>
    <_>
      -5.08302173e-06 -1.16568526e-05 -9.9926965e-06 -1.20301811e-05
      -2.23275638e-05 -1.83745706e-05 -2.40937643e-05 -1.80625575e-05
      -9.58554028e-06 -1.2539439e-05 -2.45436859e-05 -3.71381138e-05
      -4.25221806e-05 -1.23085247e-05 -2.13846051e-05 -3.50520859e-05
      -4.19863973e-05 -3.31442279e-05 -1.76040412e-05 -2.38537741e-05
      -5.07703662e-05 -8.48767741e-06 2.43740033e-05 -2.68902977e-06
      -9.63537514e-06 -3.72984905e-05 -2.1284739e-05 -1.45512577e-05
      -3.10951436e-05 -4.509477e-05 -7.21975739e-05 -6.84963306e-05
      -6.09092713e-05 -6.77557764e-05 -6.33375748e-05 -5.87503055e-05
      -5.3848049e-05 -7.9774858e-05 -9.45894935e-05 -6.31503135e-05
      -3.94592535e-05 -2.73221722e-05 -6.41442748e-05 -5.09229358e-05
      -4.86642239e-05 -6.41441075e-05 -2.61558544e-05 -1.50076012e-05
      2.89126019e-05 6.1232342e-05 4.50354346e-05 2.46624732e-05
      -2.1027774e-05 -2.76305145e-05 -2.20971651e-05 -2.02469018e-05
      -3.68404653e-06 -5.64277389e-06 -3.29789837e-05 -3.82435064e-05
      -4.07913358e-05 -5.99621526e-05 -8.22896618e-05 -7.76575544e-05
      -6.14058736e-05 -7.26960425e-05 -5.33376515e-05 -2.48735123e-05
      -1.66637856e-05 -2.06840014e-05 -1.43931784e-05 -4.02440273e-05
      -3.84104278e-05 -4.3799475e-05 1.05192667e-05 8.8748493e-06
      2.91113174e-05 3.73209368e-05 1.41972141e-05 -2.08349338e-05
      -3.13660094e-05 -1.72873133e-05 -1.8793713e-05 -2.96225608e-05
      -1.41616983e-05 -7.9536303e-06 -9.62491777e-06 -3.16169899e-05
      -3.46990782e-05 -2.97159713e-05 -4.44803554e-05 -1.6933167e-05
      3.38660044e-07 1.48696199e-05 -1.7955912e-05 -8.88106806e-05
      -0.000107956854 -2.38774137e-05 9.73542683e-06 3.511969e-06
      -7.86745022e-06 -7.25800492e-05 -9.14163465e-05 -4.6797657e-05
      -3.74875017e-05 -3.75968702e-05 -4.55256049e-05 -8.4522937e-05
      -6.22931766e-05 -5.49975848e-05 -4.90080856e-05 -1.43705838e-05
      -5.6112267e-06 -3.57725403e-05 -2.42454826e-05 -4.05353931e-05
      -3.85862295e-05 -3.66463428e-05 -1.80004299e-05 -1.90476911e-07
      2.70940127e-05 3.21366533e-05 -5.03338288e-06 -5.35445724e-05
      6.68309658e-05 0.000159230927 0.000144826088 0.000124714687
      0.000126412488 8.88038267e-05 7.36855727e-05 0.0001150475
      0.000100907069 -1.71027714e-05 -6.13376178e-05 -2.86513368e-05
      -3.13964301e-05 -5.23847411e-05 -1.8971763e-05 -3.5103933e-06 0.
      -1.65712809e-05 -4.52775057e-05 -3.65177257e-05 -2.13215553e-05
      -2.1634909e-05 3.79011508e-05 1.57034719e-05 2.19106969e-05
      6.84783154e-05 0.000126062616 0.000155106405 0.000253020233
      0.000322633481 0.000355843542 0.000281538465 0.000262000278
      0.000197316302 0.000153718895 0.000132324974 6.28721391e-05
      -2.15051514e-05 -3.39584244e-06 1.96410456e-05 -4.16370603e-05
      -2.25708936e-05 -3.5103933e-06 -3.40026327e-06 0. -4.39337327e-06
      -2.34519212e-05 -3.95777643e-05 -2.30977839e-05 2.20182756e-06
      4.97887122e-05 1.81792257e-05 1.94372969e-05 9.76019219e-05
      0.000188313337 0.000195410888 0.000190845487 0.000254695653
      0.000271472993 0.000194743072 0.000205808188 0.000167268634
      0.00014726985 0.000109781351 2.39225346e-06 -1.8478313e-05
      7.28587111e-06 -2.44509683e-05 -4.93681873e-05 -3.39768462e-06
      -2.82208089e-06 -4.5428618e-07 -8.65147103e-06 -1.98778143e-05
      1.97604368e-06 -9.36914421e-06 -1.75077566e-05 -8.01800525e-06
      1.0905982e-05 -7.91723494e-07 3.38683858e-05 7.60046532e-05
      0.00016145769 0.000157557399 5.56520208e-05 5.59370637e-05
      0.000119772078 8.06263706e-05 8.07467659e-05 9.8233344e-05
      8.90080191e-05 3.54981312e-05 -5.37056121e-06 2.6726615e-05
      6.48995774e-06 -1.10781439e-05 -5.50281129e-06 -1.67948224e-06 0.
      0. -2.54034803e-05 1.22360279e-06 2.09083464e-06 2.96218491e-06
      -4.69503175e-06 -2.48117794e-05 -9.15629244e-06 3.52187708e-05
      0.00011290401 8.10326383e-05 7.05209968e-05 8.13631923e-05
      2.03280397e-05 2.6808917e-05 6.35403048e-05 2.47665575e-05
      2.60939269e-05 3.78282966e-05 -1.22458569e-05 -1.338576e-06
      -2.76621486e-05 -1.5195199e-05 -1.23259206e-05 3.68653891e-05
      4.73291095e-07 -8.67273627e-07 0. 0. -1.49163293e-06
      5.57555893e-07 2.09083464e-06 2.44729813e-06 4.48289256e-06
      2.66443806e-07 -1.17269622e-06 6.80007406e-06 5.07568584e-05
      8.21296726e-06 9.12576252e-06 5.51083212e-05 3.38090067e-05
      -2.68594031e-05 -3.01550099e-05 -0.000100104779 -4.72410502e-05
      -1.39174881e-05 -3.40031511e-05 -2.20908787e-05 -3.88033077e-05
      4.23311803e-06 3.98829434e-05 4.40872027e-05 1.08730219e-05 0. 0.
      0. 0. 4.09967562e-08 1.39388965e-06 2.09083464e-06 4.2389961e-06
      5.90182344e-06 -3.16037313e-06 -2.0678337e-05 2.6336078e-05
      5.92516517e-06 3.0535135e-05 9.36158358e-07 -1.20637924e-06
      8.38252254e-06 4.760519e-05 4.0870651e-05 6.28448033e-05
      -4.25478049e-07 -4.82099895e-05 -6.12447329e-05 -8.39652494e-05
      2.67169526e-05 4.83294025e-05 4.65513622e-05 1.51376753e-05 0. 0.
      0. 0. 0. 4.75562359e-07 1.86945203e-06 2.10021517e-06
      1.78745859e-06 -6.66017877e-06 5.00506894e-06 3.00425108e-05
      3.02432763e-05 -2.174565e-06 8.87825172e-06 0.000110245892
      8.41302972e-05 0.00010908462 0.000136205097 7.65840668e-05
      -1.31318566e-05 -3.28389251e-05 -7.29234671e-05 -3.46698835e-05
      3.71158931e-05 4.90367966e-05 4.70744781e-05 2.21526952e-05 0. 0.
      0. 0. 0. 0. 7.46140927e-07 1.29549744e-06 2.29581829e-07
      -3.61335583e-06 -1.83773216e-06 1.04500771e-06 2.62331505e-05
      4.89604281e-06 5.27506127e-05 9.46543296e-05 0.00013096715
      0.00014649448 0.000229817451 8.62765592e-05 4.91046812e-05
      2.1639431e-05 -1.53775909e-05 1.7628774e-05 1.57304312e-05
      4.26883234e-05 4.70744781e-05 2.75062648e-05 0. 0. 0. 0. 0. 0. 0.
      0. 0. 0. 8.94340531e-07 4.82892801e-07 1.89234979e-05
      8.19702182e-05 7.54129942e-05 9.78969547e-05 9.80868281e-05
      0.000137622206 0.00020455473 6.16736434e-05 6.32528172e-05
      -3.51241106e-05 -4.44658581e-05 -1.89138827e-05 -5.33856728e-05
      1.45119666e-05 4.31162225e-05 2.50372104e-05 -2.63883749e-06 0. 0.
      0. 0. 0. 0. 0. 0. 0. 0. 1.87422866e-05 3.38755381e-05
      0.000119146702 9.7135031e-05 8.22290021e-05 6.88145519e-05
      0.000156683862 0.000139114651 6.62977181e-05 4.74983199e-06
      -0.000118951626 -0.000138901407 -6.58837089e-05 -8.51923687e-05
      -3.6757916e-05 2.19677713e-05 1.93275209e-05 -1.13937349e-05 0. 0.
      0. 0. 0. -8.43275473e-07 -4.30249747e-05 -5.19380264e-05
      -5.12634033e-05 -3.49184193e-05 -2.12226478e-05 3.75757627e-05
      6.43996973e-05 6.9388414e-05 3.45915178e-05 0.000118846532
      0.000157312519 0.00013048033 0.000133614201 6.81637248e-05
      -3.3552602e-05 -8.64940012e-05 -7.87370882e-05 -8.69987562e-05
      -7.07603758e-05 1.70999429e-05 2.58772252e-05 -1.57749637e-05
      -1.77625267e-07 0. 0. -1.2238828e-06 -6.88789896e-06
      -1.47299834e-05 -6.33106174e-05 -6.81148595e-05 -8.6594031e-05
      -9.0794405e-05 -5.98890838e-05 -3.3844939e-05 -4.17371521e-05
      -2.38884895e-05 4.64792429e-05 0.000165831196 0.000151392625
      0.000140818767 0.000163613746 0.000138148607 1.74063643e-05
      -2.50423964e-05 -6.43759704e-05 -8.08250988e-05 -8.49883145e-05
      -1.1932254e-05 1.53583278e-05 -1.79267208e-05 -1.04307151e-06 0.
      -3.40448423e-07 -4.10217626e-06 -1.75853584e-05 -4.97632063e-05
      -0.00011001798 -0.00013074743 -0.000156537048 -0.000114446477
      -5.68514115e-05 -3.77083416e-05 -4.99493808e-07 3.43099273e-05
      0.000123582373 0.000151609886 0.00015109923 0.000133620633
      0.000149243613 0.000163610748 7.77964597e-05 4.31723165e-05
      -4.1417341e-05 -7.63759235e-05 -4.21367076e-05 -9.42395309e-06
      8.03027797e-06 -1.87524383e-05 -4.79867322e-06 0. -1.28778322e-06
      -7.75303215e-06 -3.26599402e-05 -6.97499709e-05 -0.000134586822
      -0.000146581922 -0.000159061034 -4.59574549e-05 -4.7436215e-06
      -2.93470202e-06 -2.24385021e-05 8.7335924e-05 0.000140404285
      0.000155577742 0.000156583337 0.000128122279 0.000136440474
      0.000144850914 9.48058514e-05 6.25759712e-05 -3.68765141e-05
      -4.49488944e-05 -2.73418664e-05 8.5267402e-06 9.31859813e-06
      -2.36208089e-05 -9.38948051e-06 0. -8.73324268e-07 -1.17523823e-05
      -4.52628265e-05 -9.41333492e-05 -0.000136704883 -0.000147198298
      -0.000144463789 -6.41560764e-05 -4.70482009e-05 -3.34417928e-05
      5.48774042e-05 0.000154379348 0.000154966401 0.0001314736
      0.000169627354 0.000127855383 0.000127997773 0.000104479848
      0.000104333252 4.60966767e-05 2.27857277e-06 -7.71161581e-07
      -4.11022593e-05 1.29238997e-05 1.67993985e-05 -3.49804795e-05
      -1.42627368e-05 0. -4.58865287e-07 -6.44842021e-06 -7.00974415e-05
      -9.70213659e-05 -0.00010360482 -8.21627036e-05 -8.8469933e-05
      -0.000107565247 -0.000100449572 1.72383909e-06 5.76877574e-05
      8.13257429e-05 0.000129332679 0.000132262678 0.000185872559
      0.000120962563 7.51227853e-05 6.07388065e-05 8.57304258e-05
      4.98258669e-05 -1.16886586e-05 -1.48504444e-06 -6.39168138e-05
      9.04545323e-06 3.46430061e-05 -2.54063489e-05 -3.52468087e-05 0.
      -1.92427379e-07 -1.41398195e-05 -9.30663518e-05 -7.07537183e-05
      -4.90568964e-05 2.02506017e-05 -7.28775703e-05 -9.40300015e-05
      -6.98833974e-05 -1.819094e-05 -2.10598919e-05 8.73744284e-06
      3.55302218e-05 0.000107811917 0.000159296498 0.000105539708
      7.15910792e-05 5.04348645e-05 3.88817243e-05 3.47502937e-05
      -3.63192994e-05 -3.3430515e-05 -4.85914425e-05 1.91742183e-05
      3.24218781e-05 -1.76321282e-05 -4.05769679e-05 -1.60588127e-06 0.
      -2.58177388e-05 -7.43385463e-05 -5.35152576e-05 7.14627413e-06
      2.36954475e-06 -5.1332463e-05 -3.87796405e-07 7.68084703e-07
      -0.000112724323 -0.000142325996 -4.34861649e-05 -3.86809406e-05
      5.18957131e-05 0.000161952936 0.000104930732 -1.57484938e-05
      -4.57678616e-05 -2.70608198e-05 7.18537603e-06 -5.54243379e-05
      -2.88701685e-05 -7.28684836e-06 2.54635888e-05 4.74286535e-05
      1.88333415e-05 -3.74252413e-05 -8.29705277e-06 0. -3.12879856e-05
      -5.57121166e-05 -3.71527494e-05 -3.52986899e-06 -1.42104018e-05
      -2.9843377e-05 3.15568059e-06 -3.73874864e-05 -9.94192305e-05
      -7.91575731e-05 -3.84554805e-05 -1.10177252e-05 1.35697774e-05
      3.6568872e-05 -2.77887266e-05 -0.000106531035 -6.26940382e-05
      -4.38335883e-05 -1.98456546e-05 -1.69867344e-05 3.80652455e-05
      5.15334759e-05 4.98471563e-05 5.34104365e-05 5.32557624e-06
      -3.72630238e-05 -2.76120354e-05 0. -3.92112161e-05 -5.82209359e-05
      1.1574336e-05 4.04070852e-05 2.31861832e-05 3.82052031e-06
      -4.32817578e-05 -5.85633679e-05 -1.24300022e-05 -6.78832876e-05
      -9.51365218e-05 -0.000113738235 -7.04249469e-05 -6.4463442e-05
      -6.71021917e-05 -0.00015247117 -0.000102385158 -4.30143264e-05
      9.86882424e-06 6.10486386e-05 6.94707269e-05 6.63387473e-05
      3.67506182e-05 3.45726185e-05 1.08062895e-05 -3.19986029e-05
      -2.65697599e-05 0. -1.6545735e-05 1.03355869e-05 3.13411911e-05
      5.68720134e-05 4.55711124e-05 3.04971254e-05 -3.29053946e-05
      -1.17559721e-05 -3.32874242e-06 -6.12306612e-05 -4.1108131e-05
      -7.58097522e-05 -7.43303171e-05 -3.37299462e-05 -7.20779863e-05
      -0.000123288482 -7.7239165e-05 8.31061243e-06 2.84700654e-05
      5.46985502e-05 2.84438902e-05 2.34739618e-05 2.0542182e-05
      1.71587599e-05 2.26313168e-05 1.70328804e-06 4.70500026e-06 0. 0.
      1.28759268e-07 1.99716997e-05 6.58025674e-05 5.95226556e-05
      4.46606609e-05 2.36420528e-05 1.10466772e-06 4.65115676e-07
      8.38396954e-06 3.64816333e-05 8.74918442e-06 -1.97891168e-05
      -3.60639897e-05 -7.31045802e-05 -7.86230012e-05 -5.95036363e-05
      -1.08480281e-05 -6.10648726e-07 1.05014678e-05 -7.92985793e-06
      -4.25682447e-06 1.06738526e-05 2.17276593e-05 3.53793184e-05
      2.21526966e-06 2.39028122e-06 0. 0. 0. 1.36411618e-05
      6.86032508e-05 7.39261595e-05 6.64721592e-05 5.90810996e-05
      5.27250522e-05 4.79117771e-05 1.15107068e-05 -4.29100794e-07
      -6.23826872e-06 -2.89796553e-05 -4.65443227e-05 -5.37208762e-05
      -5.36302505e-05 -3.37908459e-05 -2.62799895e-05 -3.86252868e-05
      -4.12109512e-05 -2.54341667e-05 -2.8444796e-05 -3.9499133e-05
      -4.22961311e-05 -2.37644163e-05 2.13863657e-07 7.3935721e-06</_>
    <_>
      -1.66837629e-06 -1.02065371e-06 -5.88838702e-08 0. 0. 0.
      -2.06309687e-06 -1.88417271e-05 -2.39131696e-05 -5.97557118e-06
      2.09939299e-06 6.21613538e-07 -2.8032e-05 -5.36446933e-05
      -6.85052801e-05 -6.48909845e-05 -4.37100243e-06 2.29138532e-05
      -1.52323937e-05 7.44554472e-06 1.35615564e-05 -4.43128272e-07
      -1.74647607e-06 -1.74647607e-06 -1.74647607e-06 -3.08117706e-06
      -1.73522744e-06 6.82982545e-07 -1.66837629e-06 1.11332633e-06
      2.43773729e-06 2.69477437e-06 0. 6.43991939e-07 6.3228299e-06
      6.21806839e-06 -2.4640633e-06 8.17205637e-06 2.51759502e-05
      4.76090754e-05 6.18377817e-05 6.13631491e-05 5.04389136e-05
      -2.46264226e-05 2.31208778e-05 4.73934924e-05 0.000107200838
      9.65106738e-05 0.000100402569 8.19126435e-05 2.4875133e-05
      1.08051609e-05 4.40549229e-06 1.74520437e-06 -2.25024905e-05
      -3.85954372e-05 -1.66837629e-06 -1.66837629e-06 -1.70108962e-07
      6.8012082e-06 2.14241682e-05 1.60311865e-05 -3.40055994e-05
      2.5989033e-05 5.85237794e-05 7.84862495e-05 7.09367014e-05
      5.64860857e-05 1.20856594e-05 4.47005878e-05 5.51110606e-05
      -2.34940512e-06 -2.46263753e-05 6.17429105e-05 9.95953669e-05
      0.000143305719 0.000173284119 0.000118932447 9.96253875e-05
      6.57087803e-05 5.87067807e-05 3.90913301e-05 1.25265694e-06
      -3.73707953e-05 -1.66837629e-06 -1.50481003e-06 2.0002912e-07
      9.78285334e-06 7.80688788e-06 -2.56819058e-05 -1.74050947e-05
      5.89250594e-05 4.50435182e-05 8.48580021e-05 -6.0577363e-06
      -3.04037439e-05 -1.72525652e-05 8.75534442e-06 3.55142911e-05
      6.27281988e-05 0.000116426192 0.000123047983 9.53717317e-05
      9.79038377e-05 7.87045428e-05 9.84008948e-05 0.000115994037
      8.06561948e-05 4.99648959e-05 4.60321462e-05 3.13793971e-05
      -3.03863499e-06 -1.66837629e-06 -4.7152696e-08 4.11524161e-06
      2.04933003e-05 2.2866865e-05 5.10491191e-05 8.18279441e-05
      7.15857313e-05 9.87133608e-05 5.16757136e-05 -8.55036124e-05
      -9.97103343e-05 7.85689044e-05 7.41932672e-05 4.54461224e-05
      4.59474759e-05 0.000100662299 0.000104117389 0.000122482525
      0.000104090126 4.94675369e-05 1.65202459e-06 2.56989024e-05
      5.08755111e-05 3.2823049e-05 2.0472371e-05 7.3958654e-06
      1.46417797e-05 -1.57023649e-07 9.13417443e-06 5.77402679e-05
      8.30361823e-05 5.57873682e-05 7.33155102e-05 0.000137762865
      0.000124634767 0.000168113911 0.000125682054 1.34306529e-05
      -8.96459733e-06 0.000170612839 0.000145512153 0.000109418572
      8.36931358e-05 0.000150946769 0.000105019346 0.000142656194
      0.000173847569 0.000118744698 -1.0072903e-05 1.50828646e-05
      1.04433311e-05 2.33467617e-05 -5.50826462e-06 -8.69136511e-06
      9.80323603e-06 0. 9.19960075e-06 6.46193657e-05 4.23337951e-05
      4.04768143e-05 7.93051076e-05 0.000130627261 0.00016351878
      0.000162962082 0.000106465021 0.000209024074 9.6051037e-05
      0.000145216851 0.000238268229 0.000102254227 6.79349178e-05
      0.000156827577 6.33359814e-05 0.000163752426 8.47529154e-05
      0.000129952008 5.27826269e-05 -1.3560059e-06 7.66443827e-06
      -3.98460579e-05 -1.19299184e-05 -8.59312649e-07 4.96158282e-06 0.
      1.31806419e-05 7.40438627e-05 3.46250199e-05 2.2163098e-05
      1.81523083e-05 6.1126244e-05 8.01383067e-05 1.27173962e-05
      6.28422058e-05 0.000238439839 6.6331595e-05 0.000147542392
      0.000254842656 0.000145548183 1.46070397e-05 0.000112554066
      9.1651098e-05 6.47772613e-05 -9.72253656e-06 8.26015166e-05
      9.3837145e-05 5.49555261e-05 6.69521833e-05 2.14861893e-06
      -1.39462227e-05 1.85479839e-05 4.75485012e-06 2.86869135e-06
      2.21965292e-05 7.32775952e-05 2.4343819e-05 3.65300657e-05
      4.91969331e-05 2.88403571e-05 6.95454219e-05 7.72276981e-05
      0.000123272053 0.000215839726 3.68462861e-05 0.000120754215
      0.000186232457 0.000147364859 -4.01933066e-05 0.000157281916
      0.000222121409 -1.76283484e-05 -2.27538512e-05 1.47804976e-05
      5.31459546e-06 -7.69492635e-06 -2.83208756e-05 -6.56380871e-05
      -5.38804015e-05 3.29779914e-06 0. 0. 4.91133778e-06 5.11118196e-05
      3.21299449e-05 3.02695953e-05 -3.14905083e-05 3.82643775e-05
      3.98909979e-05 6.86323619e-06 8.37384796e-05 0.000131243869
      -7.31060527e-06 6.9462083e-05 0.000116067546 0.000136310133
      -1.54493432e-06 0.000198964408 0.000309028546 -6.92936592e-05
      -4.10002031e-05 -1.68001425e-05 -2.68539043e-06 -1.63108252e-05
      -5.16033506e-05 -6.62204402e-05 -5.4297343e-05 -1.73593653e-05 0.
      0. 1.45298536e-05 6.35960751e-05 2.48732358e-05 1.23760474e-05
      -4.26992774e-05 -1.40208303e-05 2.18782839e-06 2.85936749e-05
      0.000107213069 5.62844434e-05 -3.50556766e-05 0.00011681702
      2.17741999e-05 0.000122968951 7.16697559e-06 8.84550027e-05
      0.000217813926 2.88697061e-06 -0.000107259963 -4.03226732e-05
      -2.54873285e-05 -2.58587461e-05 -5.09074089e-05 -6.74687253e-05
      -5.68098112e-05 -4.98611626e-05 -1.44716032e-05 0. 2.79657911e-06
      5.93271761e-05 6.84106781e-05 1.21993953e-05 -5.18022243e-05
      -0.000107282365 -2.24825326e-05 5.01702743e-05 3.30335679e-05
      -7.17116418e-05 -0.000101383528 3.29760915e-05 6.99491875e-06
      0.000129908789 4.77666908e-05 -6.69557403e-06 0.000112105903
      0.000103499508 -0.000146017948 -3.53092219e-05 3.19196261e-05
      -4.53306802e-06 -3.335984e-05 -6.49689464e-05 -5.74182777e-05
      -5.05728785e-05 -6.02588043e-05 0. 0. 1.98302878e-05
      6.66336491e-05 1.22242245e-05 -0.000121397534 -0.000174632427
      -7.59261893e-05 -6.04666966e-05 -7.70165425e-05 -0.000162192533
      -0.000158130599 4.44602574e-06 1.85157733e-05 0.000164240875
      0.000172254571 -6.39264836e-05 6.85757041e-05 0.000106170526
      -0.000181053038 -0.000116932686 -8.56054903e-05 -3.18286075e-05
      -2.0779778e-06 -3.22171109e-05 -4.13672569e-05 -5.08345838e-05
      -1.54205609e-05 0. 0. 3.86492911e-06 2.30046753e-05
      -2.84909111e-05 -0.000125633174 -0.000225196185 -0.000238782246
      -0.000204645839 -0.000169708903 -0.000136979521 -3.19830215e-05
      1.11611007e-05 3.76474818e-05 0.000147830244 0.000230373756
      -0.000101858794 -5.91444295e-05 8.04851243e-06 -0.000232732345
      -0.000186333287 -9.73013666e-05 -0.000183542914 -4.23988422e-05
      -2.24067844e-05 -3.36127523e-05 -5.19860914e-05 -1.57360391e-05 0.
      -3.53303221e-07 -8.11288885e-07 -2.05910965e-05 -7.99235713e-05
      -0.000142586825 -0.000166747981 -0.000259600085 -0.000215169406
      -0.000154614972 -0.000161340315 -9.00419327e-05 -3.50764567e-05
      -1.86001689e-05 2.92721379e-05 -6.11792572e-08 -9.43440537e-05
      -0.000107433763 -2.79170417e-05 -0.000234536594 -0.000207268837
      -0.000115793104 -0.000176525617 -6.49321737e-05 -1.55699017e-05
      -3.37200727e-05 -5.22412556e-05 -1.63772183e-05 -3.27132597e-08
      -1.04682431e-06 -8.54826249e-06 -8.6539003e-05 -0.000165953854
      -0.000138391129 -0.000146488019 -0.000177480644 -0.000188207676
      -0.000103600883 -0.00019163829 -0.000216641376 -0.000152978566
      -0.000109665991 -3.07619484e-05 -6.87590218e-05 -0.000113961651
      -0.000112552378 -7.25701611e-05 -6.16002653e-05 -3.53177916e-06
      -9.27498331e-06 -0.000166554732 -0.0001242812 -1.55030084e-05
      -3.42871499e-05 -1.8548697e-05 -1.31507306e-06 -4.97241558e-07
      -1.66837629e-06 -3.11101176e-05 -0.000102282429 -0.000174925139
      -0.0001712019 -0.0001446651 -0.000145405123 -5.38977474e-05
      -7.5850272e-05 -0.000196533918 -0.000220866656 -4.1179781e-05
      -4.86164754e-05 6.44869851e-06 -1.80175812e-05 3.42621715e-05
      -9.41972103e-05 -0.000128965985 -2.81931352e-05 3.63855315e-06
      -3.81541904e-05 -9.12311662e-05 -0.000160612617 -5.94700723e-05
      -3.39666258e-05 -1.78338432e-05 -1.17113473e-06 -4.97241558e-07
      -1.66837629e-06 -4.7114976e-05 -0.000122104029 -0.000190505409
      -0.000208827085 -0.000192578489 -0.0001547953 -0.000104332234
      -0.00015275745 -0.000212125102 -0.000163845209 -0.000133375899
      -0.000159319083 -0.000114564587 -0.000101665253 -5.34023384e-05
      -5.71816381e-05 -0.00017259673 -9.3941213e-05 -4.05894389e-05
      -5.36382977e-05 -9.40267491e-05 -0.00016206305 -0.000175604015
      -5.52408492e-05 -1.78338432e-05 -2.22450169e-07 -1.10570818e-06
      -4.38791312e-06 -3.19697647e-05 -0.00010922712 -0.000161443473
      -0.000194355336 -0.000166618396 -0.000118179305 -0.000168507802
      -0.000199926275 -9.53309354e-05 -5.84237569e-05 -0.000121045712
      -0.000139411131 -2.6400814e-05 3.68958063e-05 -4.135165e-05
      -4.44733178e-06 -0.00022566595 -0.000191902087 -6.40996877e-05
      -0.000154452922 -0.00015636046 -0.000126187297 -0.000198233422
      -9.78927201e-05 -1.96448964e-05 -4.0245606e-08 -1.66837629e-06
      -3.73147327e-06 -3.71427668e-05 -0.000106067011 -0.000129187116
      -0.000121831479 -7.69958569e-05 -3.89484849e-05 -0.000110905123
      -0.000173451233 -4.09338827e-05 7.36887669e-05 -1.41091743e-06
      -1.41958262e-05 0.000161079151 0.000129880325 -6.15316776e-06
      -3.80836173e-05 -0.00021108576 -0.000165432575 -0.000126516563
      -0.000127156862 -0.000131723835 -9.72637281e-05 -0.000130413056
      -6.65563493e-05 -2.16865355e-05 -1.45137039e-06 -1.66837629e-06
      -1.05336699e-06 -5.88453486e-06 -7.96252061e-05 -0.000126319632
      -0.000105532832 -3.24655994e-05 1.47841965e-05 -5.01389295e-05
      -0.000112318368 1.96031178e-05 7.97293251e-05 -1.85791196e-05
      -4.07979824e-05 1.05174149e-05 -9.52282699e-06 -9.64037827e-05
      -7.27628722e-05 -0.000143017256 -0.000152357374 -5.85916314e-05
      -6.9384645e-05 -4.12698246e-05 -4.33032255e-05 -4.30927939e-05
      -3.96997602e-05 -2.20150741e-05 -2.29889088e-06 -1.66837629e-06
      -1.66837629e-06 -2.09192967e-05 -6.40892904e-05 -7.04431732e-05
      -2.42515889e-05 1.90430419e-05 2.97592997e-05 -5.85409616e-05
      -7.94056759e-05 -4.90250895e-05 -7.58062306e-05 -0.000168568396
      -0.000113239897 -0.000113382863 -8.83441608e-05 -0.000146673148
      -7.01088793e-05 1.08805898e-05 2.12977629e-05 -1.32052546e-05
      -7.10760432e-05 -5.42370472e-05 -5.56780142e-05 -3.11552976e-05
      -1.61347871e-05 -2.34873733e-05 -1.12988482e-06 -1.55715122e-06
      -1.55715122e-06 -3.85314706e-05 -8.73638928e-05 -3.59321275e-05
      6.73847217e-06 4.57101305e-05 5.17254484e-05 -5.46098854e-05
      -5.64891889e-05 -4.19911376e-05 8.55442886e-06 2.08708261e-05
      4.34210997e-05 1.20482973e-05 -4.92944564e-05 -0.000133905982
      -0.000109656241 -7.73188094e-06 5.10888894e-05 -2.71944282e-06
      -7.38739182e-05 -5.33001548e-05 -4.80780946e-05 -6.44063493e-06
      1.66247628e-06 -1.44508958e-05 -9.48165209e-08 0. -1.88935774e-05
      -9.04117915e-05 -0.00012973987 -0.000114300121 -8.61539738e-05
      -4.06796244e-05 1.22955744e-05 -3.85018939e-05 1.30446097e-06
      -1.51567201e-05 -2.11676052e-05 3.70965176e-06 1.17548852e-05
      1.71398515e-05 -3.35147888e-05 -0.000102890452 -9.51419061e-05
      2.87220992e-05 5.94263511e-05 7.59508985e-05 -1.85657154e-05
      1.28550791e-05 2.36592678e-05 3.83670595e-05 2.45252158e-05
      3.18117818e-05 -3.79266076e-08 0. -2.37493623e-05 -6.09531817e-05
      -0.000113668306 -0.000105832623 -0.00010911766 -8.98416911e-05
      -4.3830667e-05 -1.19323995e-05 3.07959162e-05 3.24587631e-06
      -2.68820022e-05 -4.46246304e-05 -2.4560959e-05 3.06409966e-05
      -1.93363594e-05 -6.91756723e-05 -4.85591736e-05 2.21603223e-05
      0.000111889065 0.000128184853 0.000101339945 7.98070469e-05
      8.30700737e-05 8.42480804e-05 4.93055049e-05 3.51269555e-05
      -1.82592146e-06 0. -8.59060856e-06 -3.58595571e-05 -8.09270423e-05
      -2.73368623e-05 -4.727333e-05 -5.2824711e-05 -4.79499358e-05
      -1.42608314e-05 3.00662705e-05 6.81731626e-06 1.29763321e-05
      9.46943783e-06 3.3858003e-05 7.8901925e-05 1.21195103e-06
      -2.24767573e-05 -3.24979737e-05 -1.72888122e-05 0.000136507326
      0.00020334385 0.000146321589 0.000114981092 5.54644248e-05
      1.55101316e-05 1.97520671e-06 -2.67320229e-06 -8.79762138e-06
      -1.82298227e-05 -2.32644634e-05 -1.9324727e-05 -3.02980061e-05
      -1.65129186e-05 -2.49935765e-05 2.07634059e-07 1.84121909e-05
      3.4610599e-05 2.76207556e-05 -1.60995096e-05 -2.53925873e-06
      -2.77158119e-06 -6.10656389e-06 4.41843185e-05 5.78964773e-06
      2.53776579e-06 -2.08229108e-06 -1.50619844e-05 4.99194066e-05
      8.99088627e-05 4.62442986e-05 -4.00291428e-05 -6.10173302e-05
      -5.89878728e-05 -2.13876938e-05 -3.33821517e-05 -2.17969155e-05
      -4.78876354e-05 -4.47803977e-05 -4.15163049e-05 -2.7347638e-05
      -2.50983976e-05 -1.60450309e-05 -1.32081423e-05 -1.23280879e-05
      -9.62413014e-06 -1.47490409e-05 -2.09945538e-05 2.92042546e-06
      6.64495292e-06 -4.99599582e-06 -1.91213218e-07 -7.61645833e-06
      -6.36894219e-06 2.97168845e-06 -2.09136997e-05 -2.14263036e-05
      -2.21572664e-05 -6.56251796e-05 -7.0891103e-05 -4.75922716e-05
      -6.41848164e-05 -7.60986732e-05 -7.98597321e-05 -2.75952661e-05</_>
    <_>
      3.00722877e-05 4.30642904e-05 5.84092231e-05 -1.341965e-06
      -4.18623358e-06 2.06038681e-06 5.71011742e-06 7.20631715e-06
      -5.37305505e-06 -2.34287691e-05 7.37108712e-06 4.43848839e-05
      5.92231954e-05 4.98358168e-05 2.8470804e-05 5.49640172e-05
      4.72250395e-05 2.35905754e-05 1.5854097e-05 4.3074233e-05
      0.000103250211 -3.90348589e-07 0. 0. -2.34209142e-06
      -6.20781357e-05 -6.02859182e-05 1.26250379e-05 -4.12358313e-05
      -1.24581993e-05 -7.16698469e-06 7.92615174e-06 1.98026155e-05
      3.04017485e-05 1.85098506e-05 -2.08582351e-05 2.69901921e-05
      9.22458203e-05 0.000161211879 0.000130523855 0.00010728115
      8.53717647e-05 6.28129274e-05 1.61508924e-05 2.05493252e-05
      5.20339636e-05 4.7865462e-05 3.63892832e-05 2.20847651e-05
      3.55068805e-05 6.01745887e-06 -5.24063466e-07 0. 2.06836212e-05
      5.19980313e-05 4.13584385e-05 -3.5750083e-05 8.57991836e-06
      1.351216e-05 3.44171167e-05 1.15117273e-05 -3.06526526e-05
      -3.61408675e-05 3.65180385e-05 5.10131795e-05 6.2453495e-05
      6.23972883e-05 3.45747067e-05 1.05345398e-05 1.51231761e-05
      2.52368518e-05 3.10856485e-05 -1.80026254e-05 -4.22976882e-05
      4.08179731e-05 5.6689707e-05 5.60736553e-05 7.31913169e-05
      4.48385908e-05 -1.31744468e-06 -1.2184476e-05 2.12445339e-05
      7.0329741e-05 3.37519741e-05 1.72536347e-05 9.82550318e-06
      2.07143239e-05 -5.70419206e-06 -5.47657219e-05 -3.22199412e-05
      3.2806729e-05 3.53465184e-05 1.6487671e-05 5.3763717e-05
      2.73807655e-05 3.6140158e-05 2.43720751e-05 3.62522696e-05
      4.07702391e-05 4.44717261e-05 4.71663479e-05 1.02782724e-06
      -2.27845776e-05 -7.73772967e-07 2.60777051e-05 7.17478688e-05
      0.000128767089 0.000126665851 -5.29175804e-06 -1.69032955e-05
      1.95278717e-05 6.72716196e-05 -2.06234472e-06 4.18406262e-06
      -1.8317849e-05 -3.48915855e-05 -5.22516602e-05 1.32890827e-05
      2.62443045e-05 1.58516723e-05 8.87389688e-05 6.85132982e-05
      2.49616569e-05 -1.10648052e-05 -3.32762538e-05 -3.24574685e-05
      -2.89741947e-05 -1.71166175e-05 5.30948773e-06 3.70089474e-05
      -4.70069062e-05 -2.94766523e-05 1.25713113e-05 3.64124498e-05
      9.77887103e-05 0.000138584714 0.000109725937 -1.85850968e-06
      2.93551284e-06 0.000115552546 1.69505722e-06 -5.00572969e-06
      -3.82443322e-05 -1.38056384e-05 -2.08393922e-05 1.26845589e-05
      2.51662659e-05 3.7631311e-05 0.000174035886 0.000113500551
      9.40461323e-05 3.88682529e-05 2.37973982e-05 6.68417051e-05
      9.08899092e-05 6.17598489e-05 -1.93094293e-05 -5.16620094e-05
      -1.18800235e-05 -5.36523876e-05 -9.33765818e-07 3.74117262e-05
      4.42484015e-05 3.40094557e-05 9.20423554e-05 6.06565518e-05
      3.9680358e-06 6.81194797e-05 -3.94838844e-06 6.89479566e-06
      3.05997673e-06 -1.64973135e-05 -2.23984152e-05 -9.75594844e-07
      5.4114942e-05 0.000101475875 0.000135670372 8.22902148e-05
      4.21330915e-05 4.03110462e-05 3.36684934e-05 5.77751598e-06
      5.81723107e-05 9.161864e-05 -3.72160612e-05 -0.000101801619
      -3.93858572e-05 -5.75314261e-05 -1.93295182e-05 5.06368342e-05
      3.72535869e-05 6.97930227e-05 6.37509002e-05 6.07402435e-05
      1.8052946e-05 -1.93584838e-05 -1.86032976e-05 2.56087856e-06
      4.38650977e-06 -4.26775332e-05 -7.04849153e-05 9.39059464e-06
      0.000140634671 0.000133839902 0.000108379914 6.99657394e-05
      6.71238959e-05 6.74855983e-05 5.99640043e-05 3.89102424e-05
      -4.70940431e-05 5.63129106e-05 -6.74096591e-05 -0.000105924853
      -4.13070593e-05 -2.48439646e-05 -5.17293338e-05 5.65243795e-07
      5.74859769e-05 5.29038989e-05 -5.35916515e-05 2.56952353e-05
      7.56366571e-05 8.67424096e-05 6.07913571e-05 7.68125901e-05
      8.2738683e-05 4.38759453e-05 6.04486122e-05 2.34661347e-05
      0.0001766965 6.99431039e-05 1.60897507e-05 4.86310273e-05
      0.000119188291 0.000117216099 0.000120756631 0.000127179315
      7.91050043e-05 8.82313179e-05 -7.44506688e-05 -7.89262776e-05
      -3.9356546e-05 -2.05591823e-05 -4.28831445e-05 -2.71555964e-05
      5.16369691e-05 5.29849458e-05 -4.0879986e-05 -4.18536592e-06
      3.64152365e-05 4.43802455e-05 0.000106182277 0.000102381222
      0.000105781684 0.000100572877 0.000100737641 1.27859867e-05
      0.000109688794 6.8103298e-05 6.06334543e-05 4.38190473e-05
      9.97714451e-05 9.03363689e-05 9.19457234e-05 0.000115454313
      5.64415241e-05 4.53533248e-05 -6.03275039e-05 -4.56856942e-05
      -2.12193809e-05 -1.28210195e-06 -3.56109013e-05 -2.48577671e-05
      5.43004026e-05 1.63540935e-05 -4.78554757e-05 -4.87644975e-05
      -1.59029969e-05 -1.73871958e-05 0.000106182277 0.000102381222
      0.000102381222 0.000100145175 0.000100404519 -3.28048593e-08
      3.54235781e-05 1.32899841e-05 -1.71055763e-05 -2.37928598e-05
      -3.15480902e-05 -2.76222363e-05 -2.97761617e-05 1.41737937e-05
      -2.78276548e-05 5.77767714e-05 6.09468152e-05 -3.29596951e-05
      2.20244328e-05 1.06882762e-05 -2.01296025e-05 6.68555685e-07
      2.62392996e-06 -3.29827781e-05 -4.8173617e-05 -3.10274263e-05
      9.29508496e-06 -1.7351671e-05 0.000106182277 0.000102381222
      0.000102381222 0.000102381222 9.9972247e-05 3.73603798e-05
      -7.06657602e-06 -4.00853569e-05 -7.55397341e-05 -9.81215635e-05
      -0.000142179299 -0.00015091672 -0.000196606503 -0.000121243589
      -5.18768647e-05 6.00079911e-05 -1.00944794e-06 -6.48691857e-05
      1.69715004e-05 -1.9922074e-05 2.01333496e-05 2.55678588e-05
      -1.70730436e-05 -4.73291111e-05 -3.91957838e-05 8.5988986e-06
      2.38878874e-05 -6.79636287e-06 -5.84928493e-05 9.98477553e-05
      0.000102381222 0.000102381222 0.000102381222 7.12228939e-05
      1.47849569e-05 -7.1841976e-05 -0.000143265759 -0.00024969189
      -0.000320293562 -0.000297068851 -0.000237827422 -0.0001085271
      -8.34500315e-05 -7.79214824e-05 -9.08317088e-05 -1.64246994e-05
      -1.42799627e-05 -5.18889783e-06 3.639848e-05 -3.0128107e-05
      -3.90080968e-05 -7.74621076e-05 1.06806392e-05 2.11970637e-05
      2.47742664e-05 -1.29687905e-05 -0.000182310177 3.65111664e-05
      0.000102381222 0.000102381222 9.42737388e-05 -1.92142579e-05
      -4.25621256e-05 -0.000133181777 -0.000206534169 -0.000323702639
      -0.000338264595 -0.000285393035 -0.000228969162 -0.000169666528
      -0.000122094018 -0.000112854505 -9.39202146e-05 -5.15148458e-05
      6.72320384e-05 5.30728576e-05 -2.12270097e-05 -3.57890895e-05
      9.12781707e-06 2.34710951e-05 4.06482613e-05 2.87309904e-05
      2.15479904e-05 -8.0837417e-06 -0.000153060566 -0.000149698404
      8.59137072e-05 0.000102381222 9.67817541e-05 -1.60521413e-05
      -1.81447194e-05 -6.41188526e-05 -0.00010983488 -0.000225072668
      -0.000272659934 -0.000213666732 -0.000145899801 -0.000157772898
      -8.65578841e-05 -6.93050824e-05 -2.56031508e-05 -3.36437915e-05
      4.93554035e-05 -6.41573497e-05 -8.91155505e-05 -2.47584521e-05
      2.34810668e-05 3.63125291e-05 3.35889818e-05 -7.93299114e-06
      4.33431751e-06 -3.9298764e-05 -0.000116396739 -0.000194262771
      -0.000110383233 9.86630039e-05 0.000146186561 7.29484891e-05
      4.15403747e-06 -1.01696469e-06 -3.62864448e-05 -5.18200031e-05
      -7.75025983e-05 -9.22017425e-05 -6.65782572e-05 -0.000100511461
      1.54603683e-07 -1.56521764e-05 -2.33764113e-05 -3.19340033e-05
      1.02783424e-07 -0.000150295062 -9.68297973e-05 -6.93987167e-05
      -2.33233641e-05 5.81073255e-06 7.69042163e-06 -6.78746292e-05
      -6.85688337e-06 -4.48258215e-05 -0.000115472518 -0.000132808273
      -0.000204108306 8.03965941e-06 0.000135318434 0.000126710496
      0.00014055529 0.000140421704 0.000172269662 0.000161233402
      0.000128040672 9.3231567e-05 6.01799584e-05 2.1700811e-05
      6.46900371e-05 1.93716187e-06 -5.21799047e-05 -5.3288757e-05
      -5.01418144e-05 -0.000127959618 -0.000139872223 -0.000117464886
      -8.28973061e-05 -3.33128264e-05 -3.5424895e-05 -0.000111247522
      -7.79973852e-05 -6.04801353e-05 8.76192644e-06 -3.10518517e-05
      -7.68776663e-05 -0.000153177985 0.000101912337 0.000176026922
      0.000188863574 0.000177552385 0.00024027683 0.000230985126
      0.000226998469 0.000172137996 7.48783496e-05 9.79019678e-05
      9.11324896e-05 3.68378205e-05 -9.41097187e-06 -2.80521672e-05
      -0.000112199916 -0.000154509413 -0.000118698059 -0.000126669853
      -0.000110028181 -8.81044762e-05 -1.87357964e-05 -2.88073625e-05
      -9.16284043e-05 -8.09525663e-05 0.000102751445 9.60649195e-05
      -6.9926813e-05 -0.000158006034 -7.27793304e-05 0.000176645393
      0.00023839323 0.000275228434 0.000237078202 0.000205748671
      0.000175720517 0.000174623478 9.58513774e-05 0.000122218509
      0.000161142336 6.93186594e-05 -3.50388996e-06 -3.24239841e-06
      -7.08196021e-05 -0.000155015849 -0.000115619034 -0.000128641681
      -8.23359806e-05 -8.93488505e-06 5.42591952e-05 -1.44493488e-05
      -4.83047588e-05 -8.83854009e-05 0.000103902232 0.000112623915
      -3.79150042e-05 -7.64650104e-05 -0.000197245507 4.75404377e-05
      0.000203578224 0.00023127663 0.000216818167 0.000204572862
      0.00014707401 0.000127842781 8.59986758e-05 0.000141130731
      0.000146995095 7.36807924e-05 -2.7399949e-06 6.0780003e-06
      -5.8715239e-05 -0.000144745311 -9.93816866e-05 -4.37744275e-05
      -3.78399e-06 8.56429324e-06 5.10942227e-05 -2.80991353e-05
      -2.77858744e-05 -6.89171575e-05 1.09622188e-05 0.000117312557
      0.000153921806 -1.98272137e-05 -0.000148658466 -6.12006043e-05
      0.000152989407 0.000177689682 0.000194524531 0.000243520175
      0.000157875184 0.000142494464 9.3069757e-05 0.000184940218
      0.000130967062 2.44707953e-05 -1.26985697e-05 2.92202621e-05
      -5.09600395e-05 -3.62144274e-05 -3.75500204e-05 -1.97754634e-05
      3.89592315e-05 -4.59350485e-05 6.75463616e-06 -6.28884227e-05
      -2.45329211e-05 -3.39891358e-06 -3.88000944e-06 5.03337069e-05
      0.00014307542 0.00012576679 -8.41844958e-05 -0.000150465465
      -4.31740336e-05 0.000147237748 0.00016049594 0.000183510885
      0.000154471258 0.000172460452 0.00016618082 0.000121973077
      0.000103971623 1.58634211e-05 -6.5325039e-06 1.28494203e-05
      2.13883377e-05 3.86039346e-06 -3.2098269e-05 8.51443838e-06
      -1.22901994e-07 -1.1794993e-05 -1.06683792e-05 -2.36710021e-05
      -4.40438926e-05 -1.93108699e-05 -7.09816013e-05 3.46407501e-06
      9.35978969e-05 0.000134344504 -7.34340392e-06 -9.07580106e-05
      -0.000149162952 3.61967359e-05 0.000146676568 0.000154258058
      0.000127569627 0.000144345046 0.000133028268 5.47007694e-05
      8.50229626e-05 5.7623005e-05 5.43769966e-05 6.46888611e-06
      -2.64818254e-06 6.80915491e-06 4.04634266e-05 4.6313653e-06
      -7.75005446e-06 2.9135228e-05 -4.10373796e-05 -7.31966938e-05
      -9.84768922e-05 -4.50244261e-05 0.0001000923 -4.32696215e-05
      2.89155778e-05 5.21340044e-05 -1.86822108e-05 -0.000203550167
      -0.000262571761 -0.000138397503 0.000103486411 9.3365059e-05
      8.41163419e-05 6.48442801e-05 5.39331959e-05 -9.98508858e-06
      4.23515557e-05 4.34864633e-05 4.20224314e-05 -7.13047621e-06
      -7.00339515e-05 -6.62575694e-05 -3.28625865e-05 1.82520616e-05
      1.57921186e-05 -2.9832574e-05 -3.39294747e-05 -8.31554789e-05
      -8.83518078e-05 -5.24342213e-05 0.000215619933 3.39594262e-05
      -8.98210328e-06 1.3242533e-05 2.91206252e-05 -0.000109003449
      -0.000270420511 -0.000206118013 -7.74455548e-05 7.26806538e-05
      9.94656948e-05 4.19518219e-05 8.98164672e-07 -6.87725769e-05
      -9.08945367e-07 4.72377615e-05 5.39319699e-05 -4.43651115e-05
      -4.93780135e-05 -7.70421957e-06 2.44065814e-05 -1.5325013e-05
      -3.970322e-05 -1.26905377e-06 -1.80096904e-05 -2.54680708e-05
      -7.93336221e-06 7.90768263e-06 0.000211566788 0.000216103552
      8.33485901e-05 -1.98435537e-05 -3.58151192e-05 -9.69505272e-05
      -0.000122899262 -0.000268723146 -0.000130513159 -4.42949204e-05
      -5.42172529e-06 2.8688115e-05 -2.71734443e-05 -8.762574e-06
      7.16976065e-05 0.000112662456 6.85435152e-05 1.04408373e-05
      3.5062978e-05 2.74607964e-06 -2.78168263e-05 -4.58931527e-06
      1.23370646e-05 8.85142867e-07 1.14698951e-05 3.11531767e-06
      4.16057956e-05 0.00014043659 0.000162251323 0.000135946364
      0.000122862184 0.000124743994 0.000140455508 0.000114989547
      6.89628723e-05 -5.03776319e-05 -6.44056054e-05 -6.77906937e-05
      -4.4908993e-05 8.42968973e-07 -1.92475254e-05 -6.97466094e-05
      -5.46151205e-05 7.45976286e-05 8.43028247e-05 4.36951887e-05
      -1.58171333e-05 -4.37603012e-06 2.48041197e-05 3.1416097e-05
      1.8146713e-05 3.23629392e-05 5.05747412e-05 7.95650922e-05
      0.000146348801 0.000122247657 0.000268544914 0.000231747414
      0.00024020407 0.000204606011 0.000146542414 0.000104374696
      9.40197933e-05 -1.59016618e-05 -3.27168964e-05 -1.39839785e-05
      -1.18481739e-05 -4.88339856e-06 -2.15558202e-06 -5.29579738e-05
      -4.90878956e-05 -8.56504539e-06 1.50657525e-05 1.4692929e-06
      1.00464467e-05 1.13855367e-05 2.01905841e-05 2.94530364e-05
      3.21974658e-05 7.95305095e-05 0.000143138343 0.000140950637
      7.35348585e-05 3.30527255e-05</_>
    <_>
      -1.54337158e-05 -1.00415755e-05 8.63661808e-06 1.07120843e-06
      -4.36608474e-07 -4.39863106e-06 -3.50080222e-06 4.48488294e-07
      2.87441509e-07 4.66399069e-06 9.15330384e-06 1.35453547e-05
      1.43410471e-05 1.11860109e-05 4.95551012e-06 -7.74252658e-06
      -4.08705409e-06 1.11958798e-05 5.75603335e-05 5.98072256e-05
      5.27979173e-05 4.72241554e-05 5.99783889e-05 7.72386484e-05
      7.85487573e-05 7.54984576e-05 2.55625637e-05 2.80884306e-05
      -2.70699366e-05 -8.82176573e-06 1.16604065e-06 6.32628996e-07
      -2.94605411e-06 -3.03728575e-06 3.37204165e-06 8.68243569e-06
      2.49623426e-05 1.94986569e-05 2.95846585e-05 2.56675594e-05
      5.28548444e-05 5.67047209e-05 4.0217823e-05 -2.77126746e-05
      -6.72716997e-05 -7.65760851e-05 -1.58886069e-05 2.789053e-05
      4.2956508e-05 2.80696477e-05 3.34961624e-05 2.12766263e-05
      4.57778697e-05 4.21248915e-05 2.62044887e-05 1.39000131e-05
      -2.85970164e-05 -7.46949809e-08 8.01322403e-06 1.91134277e-05
      1.52650264e-05 1.66815826e-05 -3.50160667e-06 1.8271694e-05
      2.72516845e-05 2.97105889e-05 3.39427424e-05 5.5315526e-05
      8.2728955e-05 8.00716298e-05 2.67294054e-05 -2.30050391e-05
      -6.96456045e-05 -8.81844971e-05 -5.8391146e-05 -4.7964495e-05
      2.99817311e-05 1.36621338e-05 -2.70311193e-05 -4.47761558e-05
      -3.14393437e-05 -1.97452682e-05 -7.72547901e-06 4.56518956e-06
      -1.68298302e-05 1.00799205e-07 1.55990347e-05 3.06643597e-05
      4.13386806e-05 4.9944505e-05 4.66620877e-05 6.65458865e-05
      4.88786427e-05 5.09239617e-05 5.1087889e-05 6.17196201e-05
      7.67823003e-05 0.00011903837 3.45740555e-05 -4.05684659e-05
      -5.89844567e-05 -7.80156042e-05 -2.7390286e-05 -2.89362488e-05
      -2.27714031e-06 -3.00497359e-05 -2.61706718e-05 -3.99133896e-05
      -4.0736315e-05 -2.98705236e-05 -1.50146388e-05 -3.69984191e-05
      1.43285922e-06 5.96971358e-06 1.08104268e-05 4.18714517e-05
      5.72636891e-05 6.87180654e-05 5.01418654e-05 5.47554446e-05
      5.83605652e-05 6.67117711e-05 8.12445287e-05 8.97576901e-05
      8.60935688e-05 8.1521197e-05 3.38675964e-05 -5.8805661e-05
      -6.32966912e-05 -5.61566667e-05 -2.53439248e-05 -3.13213823e-05
      -2.63316651e-05 -3.48273861e-05 -1.79696654e-05 -2.32136499e-05
      -4.08814631e-05 -3.85341446e-05 -1.04232695e-05 -2.47717835e-05
      -8.31677607e-06 3.49202355e-06 2.36643446e-05 5.03263e-05
      6.29722781e-05 6.65175903e-05 2.55038394e-05 4.25109329e-06
      4.34873873e-05 7.55568763e-05 0.000137734198 0.000135120077
      8.83886387e-05 5.88161056e-05 3.62851279e-05 2.8068227e-05
      -3.30341863e-05 -6.65031112e-05 -5.48431999e-05 -5.39573048e-05
      -1.52617995e-05 -1.22578813e-05 -1.79103481e-05 -9.49019613e-06
      -3.03791912e-05 -3.08121089e-05 -1.16168212e-05 5.21745005e-06
      -2.43967079e-05 -2.03198779e-05 6.69451811e-06 5.34583742e-05
      5.39706998e-05 3.94228337e-05 -1.9121273e-05 5.50581171e-06
      7.40359174e-05 5.19237474e-05 9.5774114e-05 6.72075621e-05
      5.40325027e-06 -1.25025172e-05 1.40044622e-05 1.85007048e-05
      -2.6384856e-05 -6.27130648e-05 -3.87969631e-05 -1.57247923e-05
      3.95577854e-06 1.42336694e-05 -7.8633193e-06 -3.00262354e-06
      -1.5741236e-05 -6.75393858e-06 -5.90788022e-06 2.53639028e-05
      -8.05099717e-06 -1.52285393e-05 -4.29103147e-06 8.64510366e-06
      8.90684703e-07 -1.41782375e-05 -1.6579932e-05 -5.14501698e-06
      4.32751995e-06 -2.89987838e-06 3.77608776e-05 8.19882246e-07
      -3.50054834e-05 -7.39561365e-05 -2.36764772e-05 -4.35978882e-06
      -3.79996236e-05 -4.8970287e-06 -2.17954839e-05 -1.22471802e-05
      5.41386271e-06 1.35780292e-05 1.73462413e-05 3.53264249e-06
      6.46288299e-06 -3.53102587e-06 6.90685238e-06 2.61885471e-05
      5.78666686e-06 2.49017139e-05 2.75433667e-05 2.09061236e-05
      -2.69106749e-06 -6.68796929e-05 -4.80167437e-05 -3.50374321e-05
      -4.97152178e-05 -5.30736834e-05 -3.48589092e-05 -5.35260442e-05
      -7.53493514e-05 -8.15965104e-05 -8.87591523e-05 -4.09602908e-05
      -3.99539203e-05 4.08605083e-05 2.23692132e-05 -1.62435917e-05
      4.06900472e-06 4.13737143e-05 6.81957026e-05 1.00625466e-05
      3.15314028e-05 2.54954261e-06 2.44031362e-05 2.57719039e-05
      -8.56541737e-06 1.2585504e-05 2.50818084e-05 2.53789531e-05
      -2.59876069e-05 -8.73905083e-05 -4.11584333e-05 -5.06361503e-05
      -6.79595178e-05 -0.000102217164 -0.00010003271 -0.000153705099
      -0.000156524897 -0.000149958811 -0.000123212129 -5.20587346e-05
      -3.15366633e-05 3.61111779e-05 2.31928807e-05 8.31972829e-06
      5.8322139e-06 6.1654704e-05 8.43489033e-05 2.07675203e-05
      2.54416263e-05 1.17957225e-05 2.84930193e-05 2.19674603e-05
      1.27541161e-05 3.73853482e-07 3.54877011e-06 1.15493649e-05
      2.57538159e-05 -3.16918922e-05 -4.9780836e-05 -9.10137387e-05
      -0.000138360105 -0.000146759092 -0.000202054158 -0.000261782843
      -0.000198765934 -0.000185270212 -0.000131054869 -2.0656973e-05
      1.43091947e-05 3.89440611e-05 1.7858998e-05 4.2095191e-05
      6.91226087e-05 7.0557704e-05 9.06319619e-05 6.46177359e-05
      4.73300897e-05 3.13849569e-06 2.08782349e-05 1.55623948e-05
      2.68929252e-05 1.63005352e-05 -4.4768617e-06 1.14034274e-05
      2.61889163e-05 -1.5781945e-05 -6.19647908e-05 -0.000134441638
      -0.000188146427 -0.000143913043 -0.000235152445 -0.000200754221
      -0.00017122108 -0.000153917223 -8.29717028e-05 -1.76598842e-05
      3.99624369e-05 4.14053138e-05 -2.00062404e-05 4.00397148e-05
      9.26209032e-05 9.48966772e-05 9.71815025e-05 6.13868033e-05
      5.18379275e-05 -4.93305515e-06 4.47246202e-06 1.53113469e-05
      2.65636227e-05 1.60326017e-05 -7.83819451e-06 2.04423959e-05
      1.77108559e-05 -1.10167148e-05 -6.63080791e-05 -0.000193427491
      -0.000194423948 -0.000193343454 -0.000182301999 -0.000153800793
      -0.000118131902 -7.00806704e-05 -2.51852234e-05 -3.2817341e-05
      4.71816784e-05 3.82212602e-05 -1.27503008e-05 4.05231804e-05
      0.000100916222 0.000107067222 9.858665e-05 5.36721382e-05
      5.37967571e-05 -5.53027076e-06 -6.16890611e-06 1.33697301e-06
      2.64611353e-05 -4.07233892e-06 -7.42125621e-06 4.22523626e-05
      1.6319731e-05 -4.36359987e-05 -0.000126841216 -0.000181942814
      -0.000182261996 -0.000159945615 -0.000106007355 -8.2227336e-05
      -5.08044941e-05 2.92651634e-06 1.31089519e-05 -4.88966771e-06
      3.468879e-05 3.22537999e-05 3.82272192e-05 3.26905611e-05
      4.11444926e-05 7.05486309e-05 9.57894663e-05 8.28553166e-05
      8.16844549e-05 -5.53027076e-06 -7.33494699e-06 -3.91724143e-06
      1.87764126e-05 -9.50648609e-06 5.64155334e-06 4.12141781e-05
      -1.61987668e-06 -9.02594547e-05 -0.000129010208 -0.00012408715
      -0.000130995366 -9.57050288e-05 -6.24845779e-05 -4.01984034e-05
      1.97954864e-06 2.92393615e-05 7.7050754e-06 3.90852947e-05
      2.75718539e-05 2.98831128e-05 2.23089191e-05 1.38053083e-05
      1.18593948e-06 4.92163745e-05 7.7736142e-05 9.42793267e-05
      8.65942784e-05 -5.53027076e-06 -9.10535437e-06 -8.45243358e-06
      2.33430364e-05 9.21449828e-06 1.90203882e-05 3.03521902e-05
      -1.24464568e-05 -8.03257208e-05 -7.96455861e-05 -9.08244328e-05
      -9.42292972e-05 -6.97359428e-05 5.89883575e-06 6.9609785e-05
      2.51188721e-05 2.33733699e-05 2.00579125e-05 3.79601006e-05
      -1.31635206e-05 3.77853985e-06 -3.7528157e-06 -2.29652869e-05
      -2.75676084e-05 1.71728734e-05 7.16465001e-05 8.54195969e-05
      6.78111101e-05 -2.3768358e-05 -3.17328086e-05 -2.5965548e-05
      4.10465145e-05 3.37647871e-05 1.98377857e-05 1.5094588e-06
      -2.87524072e-05 -5.58174543e-05 -9.11773386e-05 -0.00011334155
      -0.0001093705 -6.54805772e-05 1.71326155e-06 5.09137644e-05
      6.69639849e-06 1.9493511e-05 4.09380891e-06 -3.06539982e-06
      -7.33077904e-05 -6.80764424e-05 -2.73764326e-05 -5.15675783e-05
      -6.39499849e-05 -8.05935088e-06 7.00218807e-05 5.97036596e-05
      6.20287938e-06 -5.67687748e-05 -5.29964564e-05 -4.76450477e-05
      5.19588939e-05 4.99996859e-05 2.23164643e-05 -2.16441913e-05
      -4.46031299e-05 -4.54186193e-05 -8.81530068e-05 -5.19524001e-05
      -5.1586565e-05 -2.14751217e-05 9.22934942e-06 -1.01991204e-09
